Language model created by QuickLM on Tue Jun  4 22:44:43 EDT 2019
Copyright (c) 1996-2010 Carnegie Mellon University and Alexander I. Rudnicky

The model is in standard ARPA format, designed by Doug Paul while he was at MITRE.

The code that was used to produce this language model is available in Open Source.
Please visit http://www.speech.cs.cmu.edu/tools/ for more information

The (fixed) discount mass is 0.5. The backoffs are computed using the ratio method.
This model based on a corpus of 1006 sentences and 519 words

\data\
ngram 1=519
ngram 2=1034
ngram 3=519

\1-grams:
-0.7784 </s> -0.3010
-0.7784 <s> -0.2218
-3.4800 A -0.2219
-3.4800 ABLE -0.2219
-3.4800 ABOUT -0.2219
-3.4800 ABOVE -0.2219
-3.4800 ACT -0.2219
-3.4800 ADD -0.2219
-3.4800 AFTER -0.2219
-3.4800 AGAIN -0.2219
-3.4800 AGAINST -0.2219
-3.4800 AGE -0.2219
-3.4800 AGO -0.2219
-3.4800 AIR -0.2219
-3.7810 ALARM -0.2219
-3.4800 ALL -0.2219
-3.4800 ALSO -0.2219
-3.4800 ALWAYS -0.2219
-3.4800 AM -0.2219
-3.7810 AMONG -0.2219
-3.4800 AN -0.2219
-3.4800 AND -0.2219
-3.4800 ANIMAL -0.2219
-3.4800 ANSWER -0.2219
-3.4800 ANY -0.2219
-3.4800 APPEAR -0.2219
-3.4800 ARE -0.2219
-3.4800 AREA -0.2219
-3.4800 AS -0.2219
-3.4800 ASK -0.2219
-3.4800 AT -0.2219
-3.4800 BACK -0.2219
-3.4800 BASE -0.2219
-3.4800 BE -0.2219
-3.4800 BEAUTY -0.2219
-3.7810 BED -0.2219
-3.4800 BEEN -0.2219
-3.4800 BEFORE -0.2219
-3.4800 BEGAN -0.2219
-3.4800 BEGIN -0.2219
-3.4800 BEHIND -0.2219
-3.4800 BEST -0.2219
-3.4800 BETTER -0.2219
-3.4800 BETWEEN -0.2219
-3.4800 BIG -0.2219
-3.4800 BIRD -0.2219
-3.4800 BLACK -0.2219
-3.4800 BLUE -0.2219
-3.4800 BOAT -0.2219
-3.4800 BODY -0.2219
-3.4800 BOOK -0.2219
-3.4800 BOTH -0.2219
-3.4800 BOX -0.2219
-3.4800 BOY -0.2219
-3.7810 BRING -0.2219
-3.7810 BROUGHT -0.2219
-3.7810 BRUXELLES -0.2219
-3.4800 BUILD -0.2219
-3.4800 BUSY -0.2219
-3.4800 BUT -0.2219
-3.4800 BY -0.2219
-3.4800 CALL -0.2219
-3.4800 CAME -0.2219
-3.4800 CAN -0.2219
-3.4800 CAR -0.2219
-3.4800 CARE -0.2219
-3.4800 CARRY -0.2219
-3.4800 CAUSE -0.2219
-3.4800 CENTER -0.2219
-3.4800 CERTAIN -0.2219
-3.4800 CHANGE -0.2219
-3.4800 CHECK -0.2219
-3.4800 CHILDREN -0.2219
-3.4800 CITY -0.2219
-3.4800 CLASS -0.2219
-3.4800 CLEAR -0.2219
-3.4800 CLOSE -0.2219
-3.4800 COLD -0.2219
-3.4800 COLOR -0.2219
-3.4800 COME -0.2219
-3.4800 COMMON -0.2219
-3.4800 COMPLETE -0.2219
-3.7810 CONNECTED -0.2219
-3.4800 CONTAIN -0.2219
-3.4800 CORRECT -0.2219
-3.4800 COULD -0.2219
-3.4800 COUNTRY -0.2219
-3.4800 COURSE -0.2219
-3.4800 COVER -0.2219
-3.4800 CROSS -0.2219
-3.4800 CRY -0.2219
-3.4800 CUT -0.2219
-3.4800 DARK -0.2219
-3.4800 DAY -0.2219
-3.4800 DECIDE -0.2219
-3.4800 DEEP -0.2219
-3.4800 DEVELOP -0.2219
-3.4800 DID -0.2219
-3.4800 DIFFER -0.2219
-3.4800 DIRECT -0.2219
-3.4800 DO -0.2219
-3.4800 DOES -0.2219
-3.4800 DOG -0.2219
-3.4800 DONE -0.2219
-3.4800 DONT -0.2219
-3.4800 DOOR -0.2219
-3.4800 DOWN -0.2219
-3.4800 DRAW -0.2219
-3.4800 DRIVE -0.2219
-3.4800 DRY -0.2219
-3.4800 DURING -0.2219
-3.4800 EACH -0.2219
-3.4800 EARLY -0.2219
-3.4800 EARTH -0.2219
-3.4800 EASE -0.2219
-3.7810 EAST -0.2219
-3.4800 EAT -0.2219
-3.7810 EMAIL -0.2219
-3.4800 END -0.2219
-3.4800 ENOUGH -0.2219
-3.4800 EVEN -0.2219
-3.7810 EVENTS -0.2219
-3.4800 EVER -0.2219
-3.4800 EVERY -0.2219
-3.4800 EXAMPLE -0.2219
-3.4800 EYE -0.2219
-3.4800 FACE -0.2219
-3.4800 FACT -0.2219
-3.4800 FALL -0.2219
-3.4800 FAMILY -0.2219
-3.4800 FAR -0.2219
-3.4800 FARM -0.2219
-3.4800 FAST -0.2219
-3.4800 FATHER -0.2219
-3.4800 FEEL -0.2219
-3.4800 FEET -0.2219
-3.4800 FEW -0.2219
-3.4800 FIELD -0.2219
-3.4800 FIGURE -0.2219
-3.7810 FILL -0.2219
-3.4800 FINAL -0.2219
-3.4800 FIND -0.2219
-3.4800 FINE -0.2219
-3.4800 FIRE -0.2219
-3.4800 FIRST -0.2219
-3.4800 FISH -0.2219
-3.4800 FIVE -0.2219
-3.4800 FLY -0.2219
-3.4800 FOLLOW -0.2219
-3.4800 FOOD -0.2219
-3.4800 FOOT -0.2219
-3.4800 FOR -0.2219
-3.4800 FORCE -0.2219
-3.4800 FORM -0.2219
-3.4800 FOUND -0.2219
-3.4800 FOUR -0.2219
-3.7810 FRANCISCO -0.2219
-3.4800 FREE -0.2219
-3.7810 FREMONT -0.2219
-3.4800 FRIEND -0.2219
-3.4800 FROM -0.2219
-3.4800 FRONT -0.2219
-3.4800 FULL -0.2219
-3.7810 GAME -0.2219
-3.4800 GAVE -0.2219
-3.4800 GET -0.2219
-3.4800 GIRL -0.2219
-3.4800 GIVE -0.2219
-3.4800 GO -0.2219
-3.4800 GOLD -0.2219
-3.4800 GOOD -0.2219
-3.4800 GOT -0.2219
-3.4800 GOVERN -0.2219
-3.4800 GREAT -0.2219
-3.4800 GREEN -0.2219
-3.4800 GROUND -0.2219
-3.4800 GROUP -0.2219
-3.4800 GROW -0.2219
-3.4800 HAD -0.2219
-3.4800 HALF -0.2219
-3.4800 HAND -0.2219
-3.4800 HAPPEN -0.2219
-3.4800 HARD -0.2219
-3.4800 HAS -0.2219
-3.4800 HAVE -0.2219
-3.4800 HE -0.2219
-3.4800 HEAD -0.2219
-3.4800 HEAR -0.2219
-3.4800 HEARD -0.2219
-3.7810 HEAT -0.2219
-3.7810 HELLO -0.2219
-3.4800 HELP -0.2219
-3.4800 HER -0.2219
-3.4800 HERE -0.2219
-3.4800 HIGH -0.2219
-3.4800 HIM -0.2219
-3.4800 HIS -0.2219
-3.7810 HISTORY -0.2219
-3.4800 HOLD -0.2219
-3.4800 HOME -0.2219
-3.4800 HORSE -0.2219
-3.3039 HOT -0.2219
-3.4800 HOUR -0.2219
-3.4800 HOUSE -0.2219
-3.4800 HOW -0.2219
-3.4800 HUNDRED -0.2219
-3.4800 IDEA -0.2219
-3.4800 IF -0.2219
-3.4800 IN -0.2219
-3.4800 INCH -0.2219
-3.4800 INTEREST -0.2219
-3.3039 IS -0.2219
-3.4800 ISLAND -0.2219
-3.4800 IT -0.2219
-3.4800 JUST -0.2219
-3.4800 KEEP -0.2219
-3.4800 KIND -0.2219
-3.4800 KING -0.2219
-3.4800 KNEW -0.2219
-3.4800 KNOW -0.2219
-3.4800 LAND -0.2219
-3.7810 LANGUAGE -0.2219
-3.4800 LARGE -0.2219
-3.4800 LAST -0.2219
-3.4800 LATE -0.2219
-3.4800 LAUGH -0.2219
-3.4800 LAY -0.2219
-3.4800 LEAD -0.2219
-3.4800 LEARN -0.2219
-3.4800 LEAVE -0.2219
-3.4800 LEFT -0.2219
-3.4800 LESS -0.2219
-3.4800 LET -0.2219
-3.4800 LETTER -0.2219
-3.4800 LIFE -0.2219
-3.4800 LIGHT -0.2219
-3.7810 LIGHTS -0.2219
-3.4800 LIKE -0.2219
-3.4800 LINE -0.2219
-3.4800 LIST -0.2219
-3.4800 LISTEN -0.2219
-3.4800 LITTLE -0.2219
-3.4800 LIVE -0.2219
-3.4800 LONG -0.2219
-3.4800 LOOK -0.2219
-3.4800 LOT -0.2219
-3.4800 LOVE -0.2219
-3.4800 LOW -0.2219
-3.4800 MACHINE -0.2219
-3.4800 MADE -0.2219
-3.4800 MAIN -0.2219
-3.4800 MAKE -0.2219
-3.4800 MAN -0.2219
-3.4800 MANY -0.2219
-3.4800 MAP -0.2219
-3.4800 MARK -0.2219
-3.4800 MAY -0.2219
-3.4800 ME -0.2219
-3.4800 MEAN -0.2219
-3.4800 MEASURE -0.2219
-3.4800 MEN -0.2219
-3.4800 MIGHT -0.2219
-3.4800 MILE -0.2219
-3.4800 MIND -0.2219
-3.4800 MINUTE -0.2219
-3.7810 MISS -0.2219
-3.7810 MONACO -0.2219
-3.4800 MONEY -0.2219
-3.4800 MOON -0.2219
-3.4800 MORE -0.2219
-3.4800 MORNING -0.2219
-3.4800 MOST -0.2219
-3.4800 MOTHER -0.2219
-3.4800 MOUNTAIN -0.2219
-3.4800 MOVE -0.2219
-3.4800 MUCH -0.2219
-3.3039 MUSIC -0.2219
-3.4800 MUST -0.2219
-3.4800 MY -0.2219
-3.4800 NAME -0.2219
-3.4800 NEAR -0.2219
-3.4800 NEED -0.2219
-3.4800 NEVER -0.2219
-3.4800 NEW -0.2219
-3.4800 NEXT -0.2219
-3.4800 NIGHT -0.2219
-3.4800 NO -0.2219
-3.4800 NORTH -0.2219
-3.4800 NOTE -0.2219
-3.4800 NOTHING -0.2219
-3.4800 NOTICE -0.2219
-3.4800 NOUN -0.2219
-3.4800 NOW -0.2219
-3.4800 NUMBER -0.2219
-3.4800 NUMERAL -0.2219
-3.4800 OBJECT -0.2219
-3.4800 OF -0.2219
-3.3039 OFF -0.2219
-3.4800 OFTEN -0.2219
-3.4800 OH -0.2219
-3.4800 OLD -0.2219
-3.3039 ON -0.2219
-3.4800 ONCE -0.2219
-3.4800 ONE -0.2219
-3.4800 ONLY -0.2219
-3.4800 OPEN -0.2219
-3.4800 OR -0.2219
-3.4800 ORDER -0.2219
-3.4800 OTHER -0.2219
-3.4800 OUR -0.2219
-3.4800 OUT -0.2219
-3.4800 OVER -0.2219
-3.4800 OWN -0.2219
-3.4800 PAGE -0.2219
-3.4800 PAPER -0.2219
-3.7810 PARIS -0.2219
-3.4800 PART -0.2219
-3.4800 PASS -0.2219
-3.4800 PATTERN -0.2219
-3.4800 PEOPLE -0.2219
-3.7810 PERHAPS -0.2219
-3.4800 PERSON -0.2219
-3.4800 PICTURE -0.2219
-3.4800 PIECE -0.2219
-3.4800 PLACE -0.2219
-3.4800 PLAIN -0.2219
-3.4800 PLAN -0.2219
-3.4800 PLANE -0.2219
-3.4800 PLANT -0.2219
-3.3039 PLAY -0.2216
-3.4800 POINT -0.2219
-3.4800 PORT -0.2219
-3.4800 POSE -0.2219
-3.4800 POSSIBLE -0.2219
-3.4800 POUND -0.2219
-3.4800 POWER -0.2219
-3.4800 PRESS -0.2219
-3.4800 PROBLEM -0.2219
-3.4800 PRODUCE -0.2219
-3.4800 PRODUCT -0.2219
-3.4800 PULL -0.2219
-3.4800 PUT -0.2219
-3.4800 QUESTION -0.2219
-3.4800 QUICK -0.2219
-3.4800 RAIN -0.2219
-3.7810 RAN -0.2219
-3.4800 REACH -0.2219
-3.4800 READ -0.2219
-3.4800 READY -0.2219
-3.4800 REAL -0.2219
-3.4800 RECORD -0.2219
-3.4800 RED -0.2219
-3.4800 REMEMBER -0.2219
-3.4800 REST -0.2219
-3.7810 RICK -0.2219
-3.4800 RIGHT -0.2219
-3.4800 RIVER -0.2219
-3.4800 ROAD -0.2219
-3.4800 ROCK -0.2219
-3.4800 ROOM -0.2219
-3.4800 ROUND -0.2219
-3.4800 RULE -0.2219
-3.4800 RUN -0.2219
-3.4800 SAID -0.2219
-3.4800 SAME -0.2219
-3.7810 SAN -0.3010
-3.4800 SAW -0.2219
-3.4800 SAY -0.2219
-3.4800 SCHOOL -0.2219
-3.4800 SCIENCE -0.2219
-3.4800 SEA -0.2219
-3.7810 SEARCH -0.2219
-3.4800 SECOND -0.2219
-3.4800 SEE -0.2219
-3.4800 SEEM -0.2219
-3.4800 SELF -0.2219
-3.7810 SEND -0.2219
-3.4800 SENTENCE -0.2219
-3.4800 SERVE -0.2219
-3.3039 SET -0.2219
-3.4800 SEVERAL -0.2219
-3.7810 SHAPE -0.2219
-3.4800 SHE -0.2219
-3.4800 SHIP -0.2219
-3.4800 SHORT -0.2219
-3.4800 SHOULD -0.2219
-3.4800 SHOW -0.2219
-3.4800 SIDE -0.2219
-3.4800 SIMPLE -0.2219
-3.4800 SINCE -0.2219
-3.4800 SING -0.2219
-3.7810 SIT -0.2219
-3.4800 SIX -0.2219
-3.4800 SIZE -0.2219
-3.4800 SLEEP -0.2219
-3.4800 SLOW -0.2219
-3.4800 SMALL -0.2219
-3.7810 SMS -0.2219
-3.7810 SNOW -0.2219
-3.4800 SO -0.2219
-3.4800 SOME -0.2219
-3.4800 SONG -0.2219
-3.4800 SOON -0.2219
-3.4800 SOUND -0.2219
-3.4800 SOUTH -0.2219
-3.4800 SPECIAL -0.2219
-3.4800 SPELL -0.2219
-3.4800 STAND -0.2219
-3.4800 STAR -0.2219
-3.4800 START -0.2219
-3.4800 STATE -0.2219
-3.4800 STAY -0.2219
-3.4800 STEP -0.2219
-3.4800 STILL -0.2219
-3.4800 STOOD -0.2219
-3.4800 STOP -0.2219
-3.4800 STORY -0.2219
-3.4800 STREET -0.2219
-3.4800 STRONG -0.2219
-3.4800 STUDY -0.2219
-3.4800 SUCH -0.2219
-3.4800 SUN -0.2219
-3.4800 SURE -0.2219
-3.4800 SURFACE -0.2219
-3.4800 TABLE -0.2219
-3.4800 TAIL -0.2219
-3.4800 TAKE -0.2219
-3.4800 TALK -0.2219
-3.4800 TEACH -0.2219
-3.4800 TELL -0.2219
-3.4800 TEN -0.2219
-3.4800 TEST -0.2219
-3.4800 THAN -0.2219
-3.4800 THAT -0.2219
-3.3039 THE -0.2219
-3.4800 THEIR -0.2219
-3.4800 THEM -0.2219
-3.4800 THEN -0.2219
-3.4800 THERE -0.2219
-3.4800 THESE -0.2219
-3.4800 THEY -0.2219
-3.4800 THING -0.2219
-3.4800 THINK -0.2219
-3.4800 THIS -0.2219
-3.4800 THOSE -0.2219
-3.4800 THOUGH -0.2219
-3.4800 THOUGHT -0.2219
-3.4800 THOUSAND -0.2219
-3.4800 THREE -0.2219
-3.4800 THROUGH -0.2219
-3.4800 TIME -0.2219
-3.7810 TIMER -0.2219
-3.4800 TO -0.2219
-3.4800 TOGETHER -0.2219
-3.4800 TOLD -0.2219
-3.4800 TOO -0.2219
-3.4800 TOOK -0.2219
-3.4800 TOP -0.2219
-3.4800 TOWARD -0.2219
-3.4800 TOWN -0.2219
-3.7810 TRAFFIC -0.2219
-3.4800 TRAVEL -0.2219
-3.4800 TREE -0.2219
-3.4800 TRY -0.2219
-3.3039 TURN -0.2219
-3.4800 TWO -0.2219
-3.4800 UNDER -0.2219
-3.4800 UNIT -0.2219
-3.4800 UNTIL -0.2219
-3.4800 UP -0.2219
-3.4800 US -0.2219
-3.4800 USE -0.2219
-3.4800 USUAL -0.2219
-3.4800 VERY -0.2219
-3.4800 VOICE -0.2219
-3.4800 VOWEL -0.2219
-3.4800 WAIT -0.2219
-3.4800 WALK -0.2219
-3.4800 WANT -0.2219
-3.4800 WAR -0.2219
-3.4800 WARM -0.2219
-3.4800 WAS -0.2219
-3.4800 WATCH -0.2219
-3.4800 WATER -0.2219
-3.4800 WAY -0.2219
-3.4800 WE -0.2219
-3.7810 WEATHER -0.2219
-3.4800 WEEK -0.2219
-3.7810 WEIGHT -0.2219
-3.4800 WELL -0.2219
-3.4800 WENT -0.2219
-3.4800 WERE -0.2219
-3.4800 WEST -0.2219
-3.4800 WHAT -0.2219
-3.4800 WHEEL -0.2219
-3.4800 WHEN -0.2219
-3.3039 WHERE -0.2219
-3.4800 WHICH -0.2219
-3.4800 WHILE -0.2219
-3.4800 WHITE -0.2219
-3.3039 WHO -0.2219
-3.4800 WHOLE -0.2219
-3.4800 WHY -0.2219
-3.4800 WILL -0.2219
-3.4800 WIND -0.2219
-3.4800 WITH -0.2219
-3.4800 WONDER -0.2219
-3.4800 WOOD -0.2219
-3.4800 WORD -0.2219
-3.4800 WORK -0.2219
-3.4800 WORLD -0.2219
-3.4800 WOULD -0.2219
-3.4800 WRITE -0.2219
-3.4800 YEAR -0.2219
-3.7810 YES -0.2219
-3.4800 YET -0.2219
-3.4800 YOU -0.2219
-3.4800 YOUNG -0.2219
-3.4800 YOUR -0.2219

\2-grams:
-3.0026 <s> A 0.0000
-3.0026 <s> ABLE 0.0000
-3.0026 <s> ABOUT 0.0000
-3.0026 <s> ABOVE 0.0000
-3.0026 <s> ACT 0.0000
-3.0026 <s> ADD 0.0000
-3.0026 <s> AFTER 0.0000
-3.0026 <s> AGAIN 0.0000
-3.0026 <s> AGAINST 0.0000
-3.0026 <s> AGE 0.0000
-3.0026 <s> AGO 0.0000
-3.0026 <s> AIR 0.0000
-3.3036 <s> ALARM 0.0000
-3.0026 <s> ALL 0.0000
-3.0026 <s> ALSO 0.0000
-3.0026 <s> ALWAYS 0.0000
-3.0026 <s> AM 0.0000
-3.3036 <s> AMONG 0.0000
-3.0026 <s> AN 0.0000
-3.0026 <s> AND 0.0000
-3.0026 <s> ANIMAL 0.0000
-3.0026 <s> ANSWER 0.0000
-3.0026 <s> ANY 0.0000
-3.0026 <s> APPEAR 0.0000
-3.0026 <s> ARE 0.0000
-3.0026 <s> AREA 0.0000
-3.0026 <s> AS 0.0000
-3.0026 <s> ASK 0.0000
-3.0026 <s> AT 0.0000
-3.0026 <s> BACK 0.0000
-3.0026 <s> BASE 0.0000
-3.0026 <s> BE 0.0000
-3.0026 <s> BEAUTY 0.0000
-3.3036 <s> BED 0.0000
-3.0026 <s> BEEN 0.0000
-3.0026 <s> BEFORE 0.0000
-3.0026 <s> BEGAN 0.0000
-3.0026 <s> BEGIN 0.0000
-3.0026 <s> BEHIND 0.0000
-3.0026 <s> BEST 0.0000
-3.0026 <s> BETTER 0.0000
-3.0026 <s> BETWEEN 0.0000
-3.0026 <s> BIG 0.0000
-3.0026 <s> BIRD 0.0000
-3.0026 <s> BLACK 0.0000
-3.0026 <s> BLUE 0.0000
-3.0026 <s> BOAT 0.0000
-3.0026 <s> BODY 0.0000
-3.0026 <s> BOOK 0.0000
-3.0026 <s> BOTH 0.0000
-3.0026 <s> BOX 0.0000
-3.0026 <s> BOY 0.0000
-3.3036 <s> BRING 0.0000
-3.3036 <s> BROUGHT 0.0000
-3.3036 <s> BRUXELLES 0.0000
-3.0026 <s> BUILD 0.0000
-3.0026 <s> BUSY 0.0000
-3.0026 <s> BUT 0.0000
-3.0026 <s> BY 0.0000
-3.0026 <s> CALL 0.0000
-3.0026 <s> CAME 0.0000
-3.0026 <s> CAN 0.0000
-3.0026 <s> CAR 0.0000
-3.0026 <s> CARE 0.0000
-3.0026 <s> CARRY 0.0000
-3.0026 <s> CAUSE 0.0000
-3.0026 <s> CENTER 0.0000
-3.0026 <s> CERTAIN 0.0000
-3.0026 <s> CHANGE 0.0000
-3.0026 <s> CHECK 0.0000
-3.0026 <s> CHILDREN 0.0000
-3.0026 <s> CITY 0.0000
-3.0026 <s> CLASS 0.0000
-3.0026 <s> CLEAR 0.0000
-3.0026 <s> CLOSE 0.0000
-3.0026 <s> COLD 0.0000
-3.0026 <s> COLOR 0.0000
-3.0026 <s> COME 0.0000
-3.0026 <s> COMMON 0.0000
-3.0026 <s> COMPLETE 0.0000
-3.3036 <s> CONNECTED 0.0000
-3.0026 <s> CONTAIN 0.0000
-3.0026 <s> CORRECT 0.0000
-3.0026 <s> COULD 0.0000
-3.0026 <s> COUNTRY 0.0000
-3.0026 <s> COURSE 0.0000
-3.0026 <s> COVER 0.0000
-3.0026 <s> CROSS 0.0000
-3.0026 <s> CRY 0.0000
-3.0026 <s> CUT 0.0000
-3.0026 <s> DARK 0.0000
-3.0026 <s> DAY 0.0000
-3.0026 <s> DECIDE 0.0000
-3.0026 <s> DEEP 0.0000
-3.0026 <s> DEVELOP 0.0000
-3.0026 <s> DID 0.0000
-3.0026 <s> DIFFER 0.0000
-3.0026 <s> DIRECT 0.0000
-3.0026 <s> DO 0.0000
-3.0026 <s> DOES 0.0000
-3.0026 <s> DOG 0.0000
-3.0026 <s> DONE 0.0000
-3.0026 <s> DONT 0.0000
-3.0026 <s> DOOR 0.0000
-3.0026 <s> DOWN 0.0000
-3.0026 <s> DRAW 0.0000
-3.0026 <s> DRIVE 0.0000
-3.0026 <s> DRY 0.0000
-3.0026 <s> DURING 0.0000
-3.0026 <s> EACH 0.0000
-3.0026 <s> EARLY 0.0000
-3.0026 <s> EARTH 0.0000
-3.0026 <s> EASE 0.0000
-3.3036 <s> EAST 0.0000
-3.0026 <s> EAT 0.0000
-3.3036 <s> EMAIL 0.0000
-3.0026 <s> END 0.0000
-3.0026 <s> ENOUGH 0.0000
-3.0026 <s> EVEN 0.0000
-3.3036 <s> EVENTS 0.0000
-3.0026 <s> EVER 0.0000
-3.0026 <s> EVERY 0.0000
-3.0026 <s> EXAMPLE 0.0000
-3.0026 <s> EYE 0.0000
-3.0026 <s> FACE 0.0000
-3.0026 <s> FACT 0.0000
-3.0026 <s> FALL 0.0000
-3.0026 <s> FAMILY 0.0000
-3.0026 <s> FAR 0.0000
-3.0026 <s> FARM 0.0000
-3.0026 <s> FAST 0.0000
-3.0026 <s> FATHER 0.0000
-3.0026 <s> FEEL 0.0000
-3.0026 <s> FEET 0.0000
-3.0026 <s> FEW 0.0000
-3.0026 <s> FIELD 0.0000
-3.0026 <s> FIGURE 0.0000
-3.3036 <s> FILL 0.0000
-3.0026 <s> FINAL 0.0000
-3.0026 <s> FIND 0.0000
-3.0026 <s> FINE 0.0000
-3.0026 <s> FIRE 0.0000
-3.0026 <s> FIRST 0.0000
-3.0026 <s> FISH 0.0000
-3.0026 <s> FIVE 0.0000
-3.0026 <s> FLY 0.0000
-3.0026 <s> FOLLOW 0.0000
-3.0026 <s> FOOD 0.0000
-3.0026 <s> FOOT 0.0000
-3.0026 <s> FOR 0.0000
-3.0026 <s> FORCE 0.0000
-3.0026 <s> FORM 0.0000
-3.0026 <s> FOUND 0.0000
-3.0026 <s> FOUR 0.0000
-3.0026 <s> FREE 0.0000
-3.3036 <s> FREMONT 0.0000
-3.0026 <s> FRIEND 0.0000
-3.0026 <s> FROM 0.0000
-3.0026 <s> FRONT 0.0000
-3.0026 <s> FULL 0.0000
-3.3036 <s> GAME 0.0000
-3.0026 <s> GAVE 0.0000
-3.0026 <s> GET 0.0000
-3.0026 <s> GIRL 0.0000
-3.0026 <s> GIVE 0.0000
-3.0026 <s> GO 0.0000
-3.0026 <s> GOLD 0.0000
-3.0026 <s> GOOD 0.0000
-3.0026 <s> GOT 0.0000
-3.0026 <s> GOVERN 0.0000
-3.0026 <s> GREAT 0.0000
-3.0026 <s> GREEN 0.0000
-3.0026 <s> GROUND 0.0000
-3.0026 <s> GROUP 0.0000
-3.0026 <s> GROW 0.0000
-3.0026 <s> HAD 0.0000
-3.0026 <s> HALF 0.0000
-3.0026 <s> HAND 0.0000
-3.0026 <s> HAPPEN 0.0000
-3.0026 <s> HARD 0.0000
-3.0026 <s> HAS 0.0000
-3.0026 <s> HAVE 0.0000
-3.0026 <s> HE 0.0000
-3.0026 <s> HEAD 0.0000
-3.0026 <s> HEAR 0.0000
-3.0026 <s> HEARD 0.0000
-3.3036 <s> HEAT 0.0000
-3.3036 <s> HELLO 0.0000
-3.0026 <s> HELP 0.0000
-3.0026 <s> HER 0.0000
-3.0026 <s> HERE 0.0000
-3.0026 <s> HIGH 0.0000
-3.0026 <s> HIM 0.0000
-3.0026 <s> HIS 0.0000
-3.3036 <s> HISTORY 0.0000
-3.0026 <s> HOLD 0.0000
-3.0026 <s> HOME 0.0000
-3.0026 <s> HORSE 0.0000
-2.8265 <s> HOT 0.0000
-3.0026 <s> HOUR 0.0000
-3.0026 <s> HOUSE 0.0000
-3.0026 <s> HOW 0.0000
-3.0026 <s> HUNDRED 0.0000
-3.0026 <s> IDEA 0.0000
-3.0026 <s> IF 0.0000
-3.0026 <s> IN 0.0000
-3.0026 <s> INCH 0.0000
-3.0026 <s> INTEREST 0.0000
-2.8265 <s> IS 0.0000
-3.0026 <s> ISLAND 0.0000
-3.0026 <s> IT 0.0000
-3.0026 <s> JUST 0.0000
-3.0026 <s> KEEP 0.0000
-3.0026 <s> KIND 0.0000
-3.0026 <s> KING 0.0000
-3.0026 <s> KNEW 0.0000
-3.0026 <s> KNOW 0.0000
-3.0026 <s> LAND 0.0000
-3.3036 <s> LANGUAGE 0.0000
-3.0026 <s> LARGE 0.0000
-3.0026 <s> LAST 0.0000
-3.0026 <s> LATE 0.0000
-3.0026 <s> LAUGH 0.0000
-3.0026 <s> LAY 0.0000
-3.0026 <s> LEAD 0.0000
-3.0026 <s> LEARN 0.0000
-3.0026 <s> LEAVE 0.0000
-3.0026 <s> LEFT 0.0000
-3.0026 <s> LESS 0.0000
-3.0026 <s> LET 0.0000
-3.0026 <s> LETTER 0.0000
-3.0026 <s> LIFE 0.0000
-3.0026 <s> LIGHT 0.0000
-3.3036 <s> LIGHTS 0.0000
-3.0026 <s> LIKE 0.0000
-3.0026 <s> LINE 0.0000
-3.0026 <s> LIST 0.0000
-3.0026 <s> LISTEN 0.0000
-3.0026 <s> LITTLE 0.0000
-3.0026 <s> LIVE 0.0000
-3.0026 <s> LONG 0.0000
-3.0026 <s> LOOK 0.0000
-3.0026 <s> LOT 0.0000
-3.0026 <s> LOVE 0.0000
-3.0026 <s> LOW 0.0000
-3.0026 <s> MACHINE 0.0000
-3.0026 <s> MADE 0.0000
-3.0026 <s> MAIN 0.0000
-3.0026 <s> MAKE 0.0000
-3.0026 <s> MAN 0.0000
-3.0026 <s> MANY 0.0000
-3.0026 <s> MAP 0.0000
-3.0026 <s> MARK 0.0000
-3.0026 <s> MAY 0.0000
-3.0026 <s> ME 0.0000
-3.0026 <s> MEAN 0.0000
-3.0026 <s> MEASURE 0.0000
-3.0026 <s> MEN 0.0000
-3.0026 <s> MIGHT 0.0000
-3.0026 <s> MILE 0.0000
-3.0026 <s> MIND 0.0000
-3.0026 <s> MINUTE 0.0000
-3.3036 <s> MISS 0.0000
-3.3036 <s> MONACO 0.0000
-3.0026 <s> MONEY 0.0000
-3.0026 <s> MOON 0.0000
-3.0026 <s> MORE 0.0000
-3.0026 <s> MORNING 0.0000
-3.0026 <s> MOST 0.0000
-3.0026 <s> MOTHER 0.0000
-3.0026 <s> MOUNTAIN 0.0000
-3.0026 <s> MOVE 0.0000
-3.0026 <s> MUCH 0.0000
-3.0026 <s> MUSIC 0.0000
-3.0026 <s> MUST 0.0000
-3.0026 <s> MY 0.0000
-3.0026 <s> NAME 0.0000
-3.0026 <s> NEAR 0.0000
-3.0026 <s> NEED 0.0000
-3.0026 <s> NEVER 0.0000
-3.0026 <s> NEW 0.0000
-3.0026 <s> NEXT 0.0000
-3.0026 <s> NIGHT 0.0000
-3.0026 <s> NO 0.0000
-3.0026 <s> NORTH 0.0000
-3.0026 <s> NOTE 0.0000
-3.0026 <s> NOTHING 0.0000
-3.0026 <s> NOTICE 0.0000
-3.0026 <s> NOUN 0.0000
-3.0026 <s> NOW 0.0000
-3.0026 <s> NUMBER 0.0000
-3.0026 <s> NUMERAL 0.0000
-3.0026 <s> OBJECT 0.0000
-3.0026 <s> OF 0.0000
-2.8265 <s> OFF 0.0000
-3.0026 <s> OFTEN 0.0000
-3.0026 <s> OH 0.0000
-3.0026 <s> OLD 0.0000
-2.8265 <s> ON 0.0000
-3.0026 <s> ONCE 0.0000
-3.0026 <s> ONE 0.0000
-3.0026 <s> ONLY 0.0000
-3.0026 <s> OPEN 0.0000
-3.0026 <s> OR 0.0000
-3.0026 <s> ORDER 0.0000
-3.0026 <s> OTHER 0.0000
-3.0026 <s> OUR 0.0000
-3.0026 <s> OUT 0.0000
-3.0026 <s> OVER 0.0000
-3.0026 <s> OWN 0.0000
-3.0026 <s> PAGE 0.0000
-3.0026 <s> PAPER 0.0000
-3.3036 <s> PARIS 0.0000
-3.0026 <s> PART 0.0000
-3.0026 <s> PASS 0.0000
-3.0026 <s> PATTERN 0.0000
-3.0026 <s> PEOPLE 0.0000
-3.3036 <s> PERHAPS 0.0000
-3.0026 <s> PERSON 0.0000
-3.0026 <s> PICTURE 0.0000
-3.0026 <s> PIECE 0.0000
-3.0026 <s> PLACE 0.0000
-3.0026 <s> PLAIN 0.0000
-3.0026 <s> PLAN 0.0000
-3.0026 <s> PLANE 0.0000
-3.0026 <s> PLANT 0.0000
-2.8265 <s> PLAY 0.0000
-3.0026 <s> POINT 0.0000
-3.0026 <s> PORT 0.0000
-3.0026 <s> POSE 0.0000
-3.0026 <s> POSSIBLE 0.0000
-3.0026 <s> POUND 0.0000
-3.0026 <s> POWER 0.0000
-3.0026 <s> PRESS 0.0000
-3.0026 <s> PROBLEM 0.0000
-3.0026 <s> PRODUCE 0.0000
-3.0026 <s> PRODUCT 0.0000
-3.0026 <s> PULL 0.0000
-3.0026 <s> PUT 0.0000
-3.0026 <s> QUESTION 0.0000
-3.0026 <s> QUICK 0.0000
-3.0026 <s> RAIN 0.0000
-3.3036 <s> RAN 0.0000
-3.0026 <s> REACH 0.0000
-3.0026 <s> READ 0.0000
-3.0026 <s> READY 0.0000
-3.0026 <s> REAL 0.0000
-3.0026 <s> RECORD 0.0000
-3.0026 <s> RED 0.0000
-3.0026 <s> REMEMBER 0.0000
-3.0026 <s> REST 0.0000
-3.3036 <s> RICK 0.0000
-3.0026 <s> RIGHT 0.0000
-3.0026 <s> RIVER 0.0000
-3.0026 <s> ROAD 0.0000
-3.0026 <s> ROCK 0.0000
-3.0026 <s> ROOM 0.0000
-3.0026 <s> ROUND 0.0000
-3.0026 <s> RULE 0.0000
-3.0026 <s> RUN 0.0000
-3.0026 <s> SAID 0.0000
-3.0026 <s> SAME 0.0000
-3.3036 <s> SAN 0.0000
-3.0026 <s> SAW 0.0000
-3.0026 <s> SAY 0.0000
-3.0026 <s> SCHOOL 0.0000
-3.0026 <s> SCIENCE 0.0000
-3.0026 <s> SEA 0.0000
-3.3036 <s> SEARCH 0.0000
-3.0026 <s> SECOND 0.0000
-3.0026 <s> SEE 0.0000
-3.0026 <s> SEEM 0.0000
-3.0026 <s> SELF 0.0000
-3.3036 <s> SEND 0.0000
-3.0026 <s> SENTENCE 0.0000
-3.0026 <s> SERVE 0.0000
-2.8265 <s> SET 0.0000
-3.0026 <s> SEVERAL 0.0000
-3.3036 <s> SHAPE 0.0000
-3.0026 <s> SHE 0.0000
-3.0026 <s> SHIP 0.0000
-3.0026 <s> SHORT 0.0000
-3.0026 <s> SHOULD 0.0000
-3.0026 <s> SHOW 0.0000
-3.0026 <s> SIDE 0.0000
-3.0026 <s> SIMPLE 0.0000
-3.0026 <s> SINCE 0.0000
-3.0026 <s> SING 0.0000
-3.3036 <s> SIT 0.0000
-3.0026 <s> SIX 0.0000
-3.0026 <s> SIZE 0.0000
-3.0026 <s> SLEEP 0.0000
-3.0026 <s> SLOW 0.0000
-3.0026 <s> SMALL 0.0000
-3.3036 <s> SMS 0.0000
-3.3036 <s> SNOW 0.0000
-3.0026 <s> SO 0.0000
-3.0026 <s> SOME 0.0000
-3.0026 <s> SONG 0.0000
-3.0026 <s> SOON 0.0000
-3.0026 <s> SOUND 0.0000
-3.0026 <s> SOUTH 0.0000
-3.0026 <s> SPECIAL 0.0000
-3.0026 <s> SPELL 0.0000
-3.0026 <s> STAND 0.0000
-3.0026 <s> STAR 0.0000
-3.0026 <s> START 0.0000
-3.0026 <s> STATE 0.0000
-3.0026 <s> STAY 0.0000
-3.0026 <s> STEP 0.0000
-3.0026 <s> STILL 0.0000
-3.0026 <s> STOOD 0.0000
-3.0026 <s> STOP 0.0000
-3.0026 <s> STORY 0.0000
-3.0026 <s> STREET 0.0000
-3.0026 <s> STRONG 0.0000
-3.0026 <s> STUDY 0.0000
-3.0026 <s> SUCH 0.0000
-3.0026 <s> SUN 0.0000
-3.0026 <s> SURE 0.0000
-3.0026 <s> SURFACE 0.0000
-3.0026 <s> TABLE 0.0000
-3.0026 <s> TAIL 0.0000
-3.0026 <s> TAKE 0.0000
-3.0026 <s> TALK 0.0000
-3.0026 <s> TEACH 0.0000
-3.0026 <s> TELL 0.0000
-3.0026 <s> TEN 0.0000
-3.0026 <s> TEST 0.0000
-3.0026 <s> THAN 0.0000
-3.0026 <s> THAT 0.0000
-2.8265 <s> THE 0.0000
-3.0026 <s> THEIR 0.0000
-3.0026 <s> THEM 0.0000
-3.0026 <s> THEN 0.0000
-3.0026 <s> THERE 0.0000
-3.0026 <s> THESE 0.0000
-3.0026 <s> THEY 0.0000
-3.0026 <s> THING 0.0000
-3.0026 <s> THINK 0.0000
-3.0026 <s> THIS 0.0000
-3.0026 <s> THOSE 0.0000
-3.0026 <s> THOUGH 0.0000
-3.0026 <s> THOUGHT 0.0000
-3.0026 <s> THOUSAND 0.0000
-3.0026 <s> THREE 0.0000
-3.0026 <s> THROUGH 0.0000
-3.0026 <s> TIME 0.0000
-3.3036 <s> TIMER 0.0000
-3.0026 <s> TO 0.0000
-3.0026 <s> TOGETHER 0.0000
-3.0026 <s> TOLD 0.0000
-3.0026 <s> TOO 0.0000
-3.0026 <s> TOOK 0.0000
-3.0026 <s> TOP 0.0000
-3.0026 <s> TOWARD 0.0000
-3.0026 <s> TOWN 0.0000
-3.3036 <s> TRAFFIC 0.0000
-3.0026 <s> TRAVEL 0.0000
-3.0026 <s> TREE 0.0000
-3.0026 <s> TRY 0.0000
-2.8265 <s> TURN 0.0000
-3.0026 <s> TWO 0.0000
-3.0026 <s> UNDER 0.0000
-3.0026 <s> UNIT 0.0000
-3.0026 <s> UNTIL 0.0000
-3.0026 <s> UP 0.0000
-3.0026 <s> US 0.0000
-3.0026 <s> USE 0.0000
-3.0026 <s> USUAL 0.0000
-3.0026 <s> VERY 0.0000
-3.0026 <s> VOICE 0.0000
-3.0026 <s> VOWEL 0.0000
-3.0026 <s> WAIT 0.0000
-3.0026 <s> WALK 0.0000
-3.0026 <s> WANT 0.0000
-3.0026 <s> WAR 0.0000
-3.0026 <s> WARM 0.0000
-3.0026 <s> WAS 0.0000
-3.0026 <s> WATCH 0.0000
-3.0026 <s> WATER 0.0000
-3.0026 <s> WAY 0.0000
-3.0026 <s> WE 0.0000
-3.3036 <s> WEATHER 0.0000
-3.0026 <s> WEEK 0.0000
-3.3036 <s> WEIGHT 0.0000
-3.0026 <s> WELL 0.0000
-3.0026 <s> WENT 0.0000
-3.0026 <s> WERE 0.0000
-3.0026 <s> WEST 0.0000
-3.0026 <s> WHAT 0.0000
-3.0026 <s> WHEEL 0.0000
-3.0026 <s> WHEN 0.0000
-2.8265 <s> WHERE 0.0000
-3.0026 <s> WHICH 0.0000
-3.0026 <s> WHILE 0.0000
-3.0026 <s> WHITE 0.0000
-2.8265 <s> WHO 0.0000
-3.0026 <s> WHOLE 0.0000
-3.0026 <s> WHY 0.0000
-3.0026 <s> WILL 0.0000
-3.0026 <s> WIND 0.0000
-3.0026 <s> WITH 0.0000
-3.0026 <s> WONDER 0.0000
-3.0026 <s> WOOD 0.0000
-3.0026 <s> WORD 0.0000
-3.0026 <s> WORK 0.0000
-3.0026 <s> WORLD 0.0000
-3.0026 <s> WOULD 0.0000
-3.0026 <s> WRITE 0.0000
-3.0026 <s> YEAR 0.0000
-3.3036 <s> YES 0.0000
-3.0026 <s> YET 0.0000
-3.0026 <s> YOU 0.0000
-3.0026 <s> YOUNG 0.0000
-3.0026 <s> YOUR 0.0000
-0.3010 A </s> -0.3010
-0.3010 ABLE </s> -0.3010
-0.3010 ABOUT </s> -0.3010
-0.3010 ABOVE </s> -0.3010
-0.3010 ACT </s> -0.3010
-0.3010 ADD </s> -0.3010
-0.3010 AFTER </s> -0.3010
-0.3010 AGAIN </s> -0.3010
-0.3010 AGAINST </s> -0.3010
-0.3010 AGE </s> -0.3010
-0.3010 AGO </s> -0.3010
-0.3010 AIR </s> -0.3010
-0.3010 ALARM </s> -0.3010
-0.3010 ALL </s> -0.3010
-0.3010 ALSO </s> -0.3010
-0.3010 ALWAYS </s> -0.3010
-0.3010 AM </s> -0.3010
-0.3010 AMONG </s> -0.3010
-0.3010 AN </s> -0.3010
-0.3010 AND </s> -0.3010
-0.3010 ANIMAL </s> -0.3010
-0.3010 ANSWER </s> -0.3010
-0.3010 ANY </s> -0.3010
-0.3010 APPEAR </s> -0.3010
-0.3010 ARE </s> -0.3010
-0.3010 AREA </s> -0.3010
-0.3010 AS </s> -0.3010
-0.3010 ASK </s> -0.3010
-0.3010 AT </s> -0.3010
-0.3010 BACK </s> -0.3010
-0.3010 BASE </s> -0.3010
-0.3010 BE </s> -0.3010
-0.3010 BEAUTY </s> -0.3010
-0.3010 BED </s> -0.3010
-0.3010 BEEN </s> -0.3010
-0.3010 BEFORE </s> -0.3010
-0.3010 BEGAN </s> -0.3010
-0.3010 BEGIN </s> -0.3010
-0.3010 BEHIND </s> -0.3010
-0.3010 BEST </s> -0.3010
-0.3010 BETTER </s> -0.3010
-0.3010 BETWEEN </s> -0.3010
-0.3010 BIG </s> -0.3010
-0.3010 BIRD </s> -0.3010
-0.3010 BLACK </s> -0.3010
-0.3010 BLUE </s> -0.3010
-0.3010 BOAT </s> -0.3010
-0.3010 BODY </s> -0.3010
-0.3010 BOOK </s> -0.3010
-0.3010 BOTH </s> -0.3010
-0.3010 BOX </s> -0.3010
-0.3010 BOY </s> -0.3010
-0.3010 BRING </s> -0.3010
-0.3010 BROUGHT </s> -0.3010
-0.3010 BRUXELLES </s> -0.3010
-0.3010 BUILD </s> -0.3010
-0.3010 BUSY </s> -0.3010
-0.3010 BUT </s> -0.3010
-0.3010 BY </s> -0.3010
-0.3010 CALL </s> -0.3010
-0.3010 CAME </s> -0.3010
-0.3010 CAN </s> -0.3010
-0.3010 CAR </s> -0.3010
-0.3010 CARE </s> -0.3010
-0.3010 CARRY </s> -0.3010
-0.3010 CAUSE </s> -0.3010
-0.3010 CENTER </s> -0.3010
-0.3010 CERTAIN </s> -0.3010
-0.3010 CHANGE </s> -0.3010
-0.3010 CHECK </s> -0.3010
-0.3010 CHILDREN </s> -0.3010
-0.3010 CITY </s> -0.3010
-0.3010 CLASS </s> -0.3010
-0.3010 CLEAR </s> -0.3010
-0.3010 CLOSE </s> -0.3010
-0.3010 COLD </s> -0.3010
-0.3010 COLOR </s> -0.3010
-0.3010 COME </s> -0.3010
-0.3010 COMMON </s> -0.3010
-0.3010 COMPLETE </s> -0.3010
-0.3010 CONNECTED </s> -0.3010
-0.3010 CONTAIN </s> -0.3010
-0.3010 CORRECT </s> -0.3010
-0.3010 COULD </s> -0.3010
-0.3010 COUNTRY </s> -0.3010
-0.3010 COURSE </s> -0.3010
-0.3010 COVER </s> -0.3010
-0.3010 CROSS </s> -0.3010
-0.3010 CRY </s> -0.3010
-0.3010 CUT </s> -0.3010
-0.3010 DARK </s> -0.3010
-0.3010 DAY </s> -0.3010
-0.3010 DECIDE </s> -0.3010
-0.3010 DEEP </s> -0.3010
-0.3010 DEVELOP </s> -0.3010
-0.3010 DID </s> -0.3010
-0.3010 DIFFER </s> -0.3010
-0.3010 DIRECT </s> -0.3010
-0.3010 DO </s> -0.3010
-0.3010 DOES </s> -0.3010
-0.3010 DOG </s> -0.3010
-0.3010 DONE </s> -0.3010
-0.3010 DONT </s> -0.3010
-0.3010 DOOR </s> -0.3010
-0.3010 DOWN </s> -0.3010
-0.3010 DRAW </s> -0.3010
-0.3010 DRIVE </s> -0.3010
-0.3010 DRY </s> -0.3010
-0.3010 DURING </s> -0.3010
-0.3010 EACH </s> -0.3010
-0.3010 EARLY </s> -0.3010
-0.3010 EARTH </s> -0.3010
-0.3010 EASE </s> -0.3010
-0.3010 EAST </s> -0.3010
-0.3010 EAT </s> -0.3010
-0.3010 EMAIL </s> -0.3010
-0.3010 END </s> -0.3010
-0.3010 ENOUGH </s> -0.3010
-0.3010 EVEN </s> -0.3010
-0.3010 EVENTS </s> -0.3010
-0.3010 EVER </s> -0.3010
-0.3010 EVERY </s> -0.3010
-0.3010 EXAMPLE </s> -0.3010
-0.3010 EYE </s> -0.3010
-0.3010 FACE </s> -0.3010
-0.3010 FACT </s> -0.3010
-0.3010 FALL </s> -0.3010
-0.3010 FAMILY </s> -0.3010
-0.3010 FAR </s> -0.3010
-0.3010 FARM </s> -0.3010
-0.3010 FAST </s> -0.3010
-0.3010 FATHER </s> -0.3010
-0.3010 FEEL </s> -0.3010
-0.3010 FEET </s> -0.3010
-0.3010 FEW </s> -0.3010
-0.3010 FIELD </s> -0.3010
-0.3010 FIGURE </s> -0.3010
-0.3010 FILL </s> -0.3010
-0.3010 FINAL </s> -0.3010
-0.3010 FIND </s> -0.3010
-0.3010 FINE </s> -0.3010
-0.3010 FIRE </s> -0.3010
-0.3010 FIRST </s> -0.3010
-0.3010 FISH </s> -0.3010
-0.3010 FIVE </s> -0.3010
-0.3010 FLY </s> -0.3010
-0.3010 FOLLOW </s> -0.3010
-0.3010 FOOD </s> -0.3010
-0.3010 FOOT </s> -0.3010
-0.3010 FOR </s> -0.3010
-0.3010 FORCE </s> -0.3010
-0.3010 FORM </s> -0.3010
-0.3010 FOUND </s> -0.3010
-0.3010 FOUR </s> -0.3010
-0.3010 FRANCISCO </s> -0.3010
-0.3010 FREE </s> -0.3010
-0.3010 FREMONT </s> -0.3010
-0.3010 FRIEND </s> -0.3010
-0.3010 FROM </s> -0.3010
-0.3010 FRONT </s> -0.3010
-0.3010 FULL </s> -0.3010
-0.3010 GAME </s> -0.3010
-0.3010 GAVE </s> -0.3010
-0.3010 GET </s> -0.3010
-0.3010 GIRL </s> -0.3010
-0.3010 GIVE </s> -0.3010
-0.3010 GO </s> -0.3010
-0.3010 GOLD </s> -0.3010
-0.3010 GOOD </s> -0.3010
-0.3010 GOT </s> -0.3010
-0.3010 GOVERN </s> -0.3010
-0.3010 GREAT </s> -0.3010
-0.3010 GREEN </s> -0.3010
-0.3010 GROUND </s> -0.3010
-0.3010 GROUP </s> -0.3010
-0.3010 GROW </s> -0.3010
-0.3010 HAD </s> -0.3010
-0.3010 HALF </s> -0.3010
-0.3010 HAND </s> -0.3010
-0.3010 HAPPEN </s> -0.3010
-0.3010 HARD </s> -0.3010
-0.3010 HAS </s> -0.3010
-0.3010 HAVE </s> -0.3010
-0.3010 HE </s> -0.3010
-0.3010 HEAD </s> -0.3010
-0.3010 HEAR </s> -0.3010
-0.3010 HEARD </s> -0.3010
-0.3010 HEAT </s> -0.3010
-0.3010 HELLO </s> -0.3010
-0.3010 HELP </s> -0.3010
-0.3010 HER </s> -0.3010
-0.3010 HERE </s> -0.3010
-0.3010 HIGH </s> -0.3010
-0.3010 HIM </s> -0.3010
-0.3010 HIS </s> -0.3010
-0.3010 HISTORY </s> -0.3010
-0.3010 HOLD </s> -0.3010
-0.3010 HOME </s> -0.3010
-0.3010 HORSE </s> -0.3010
-0.3010 HOT </s> -0.3010
-0.3010 HOUR </s> -0.3010
-0.3010 HOUSE </s> -0.3010
-0.3010 HOW </s> -0.3010
-0.3010 HUNDRED </s> -0.3010
-0.3010 IDEA </s> -0.3010
-0.3010 IF </s> -0.3010
-0.3010 IN </s> -0.3010
-0.3010 INCH </s> -0.3010
-0.3010 INTEREST </s> -0.3010
-0.3010 IS </s> -0.3010
-0.3010 ISLAND </s> -0.3010
-0.3010 IT </s> -0.3010
-0.3010 JUST </s> -0.3010
-0.3010 KEEP </s> -0.3010
-0.3010 KIND </s> -0.3010
-0.3010 KING </s> -0.3010
-0.3010 KNEW </s> -0.3010
-0.3010 KNOW </s> -0.3010
-0.3010 LAND </s> -0.3010
-0.3010 LANGUAGE </s> -0.3010
-0.3010 LARGE </s> -0.3010
-0.3010 LAST </s> -0.3010
-0.3010 LATE </s> -0.3010
-0.3010 LAUGH </s> -0.3010
-0.3010 LAY </s> -0.3010
-0.3010 LEAD </s> -0.3010
-0.3010 LEARN </s> -0.3010
-0.3010 LEAVE </s> -0.3010
-0.3010 LEFT </s> -0.3010
-0.3010 LESS </s> -0.3010
-0.3010 LET </s> -0.3010
-0.3010 LETTER </s> -0.3010
-0.3010 LIFE </s> -0.3010
-0.3010 LIGHT </s> -0.3010
-0.3010 LIGHTS </s> -0.3010
-0.3010 LIKE </s> -0.3010
-0.3010 LINE </s> -0.3010
-0.3010 LIST </s> -0.3010
-0.3010 LISTEN </s> -0.3010
-0.3010 LITTLE </s> -0.3010
-0.3010 LIVE </s> -0.3010
-0.3010 LONG </s> -0.3010
-0.3010 LOOK </s> -0.3010
-0.3010 LOT </s> -0.3010
-0.3010 LOVE </s> -0.3010
-0.3010 LOW </s> -0.3010
-0.3010 MACHINE </s> -0.3010
-0.3010 MADE </s> -0.3010
-0.3010 MAIN </s> -0.3010
-0.3010 MAKE </s> -0.3010
-0.3010 MAN </s> -0.3010
-0.3010 MANY </s> -0.3010
-0.3010 MAP </s> -0.3010
-0.3010 MARK </s> -0.3010
-0.3010 MAY </s> -0.3010
-0.3010 ME </s> -0.3010
-0.3010 MEAN </s> -0.3010
-0.3010 MEASURE </s> -0.3010
-0.3010 MEN </s> -0.3010
-0.3010 MIGHT </s> -0.3010
-0.3010 MILE </s> -0.3010
-0.3010 MIND </s> -0.3010
-0.3010 MINUTE </s> -0.3010
-0.3010 MISS </s> -0.3010
-0.3010 MONACO </s> -0.3010
-0.3010 MONEY </s> -0.3010
-0.3010 MOON </s> -0.3010
-0.3010 MORE </s> -0.3010
-0.3010 MORNING </s> -0.3010
-0.3010 MOST </s> -0.3010
-0.3010 MOTHER </s> -0.3010
-0.3010 MOUNTAIN </s> -0.3010
-0.3010 MOVE </s> -0.3010
-0.3010 MUCH </s> -0.3010
-0.3010 MUSIC </s> -0.3010
-0.3010 MUST </s> -0.3010
-0.3010 MY </s> -0.3010
-0.3010 NAME </s> -0.3010
-0.3010 NEAR </s> -0.3010
-0.3010 NEED </s> -0.3010
-0.3010 NEVER </s> -0.3010
-0.3010 NEW </s> -0.3010
-0.3010 NEXT </s> -0.3010
-0.3010 NIGHT </s> -0.3010
-0.3010 NO </s> -0.3010
-0.3010 NORTH </s> -0.3010
-0.3010 NOTE </s> -0.3010
-0.3010 NOTHING </s> -0.3010
-0.3010 NOTICE </s> -0.3010
-0.3010 NOUN </s> -0.3010
-0.3010 NOW </s> -0.3010
-0.3010 NUMBER </s> -0.3010
-0.3010 NUMERAL </s> -0.3010
-0.3010 OBJECT </s> -0.3010
-0.3010 OF </s> -0.3010
-0.3010 OFF </s> -0.3010
-0.3010 OFTEN </s> -0.3010
-0.3010 OH </s> -0.3010
-0.3010 OLD </s> -0.3010
-0.3010 ON </s> -0.3010
-0.3010 ONCE </s> -0.3010
-0.3010 ONE </s> -0.3010
-0.3010 ONLY </s> -0.3010
-0.3010 OPEN </s> -0.3010
-0.3010 OR </s> -0.3010
-0.3010 ORDER </s> -0.3010
-0.3010 OTHER </s> -0.3010
-0.3010 OUR </s> -0.3010
-0.3010 OUT </s> -0.3010
-0.3010 OVER </s> -0.3010
-0.3010 OWN </s> -0.3010
-0.3010 PAGE </s> -0.3010
-0.3010 PAPER </s> -0.3010
-0.3010 PARIS </s> -0.3010
-0.3010 PART </s> -0.3010
-0.3010 PASS </s> -0.3010
-0.3010 PATTERN </s> -0.3010
-0.3010 PEOPLE </s> -0.3010
-0.3010 PERHAPS </s> -0.3010
-0.3010 PERSON </s> -0.3010
-0.3010 PICTURE </s> -0.3010
-0.3010 PIECE </s> -0.3010
-0.3010 PLACE </s> -0.3010
-0.3010 PLAIN </s> -0.3010
-0.3010 PLAN </s> -0.3010
-0.3010 PLANE </s> -0.3010
-0.3010 PLANT </s> -0.3010
-0.4771 PLAY </s> -0.3010
-0.7782 PLAY MUSIC 0.0000
-0.3010 POINT </s> -0.3010
-0.3010 PORT </s> -0.3010
-0.3010 POSE </s> -0.3010
-0.3010 POSSIBLE </s> -0.3010
-0.3010 POUND </s> -0.3010
-0.3010 POWER </s> -0.3010
-0.3010 PRESS </s> -0.3010
-0.3010 PROBLEM </s> -0.3010
-0.3010 PRODUCE </s> -0.3010
-0.3010 PRODUCT </s> -0.3010
-0.3010 PULL </s> -0.3010
-0.3010 PUT </s> -0.3010
-0.3010 QUESTION </s> -0.3010
-0.3010 QUICK </s> -0.3010
-0.3010 RAIN </s> -0.3010
-0.3010 RAN </s> -0.3010
-0.3010 REACH </s> -0.3010
-0.3010 READ </s> -0.3010
-0.3010 READY </s> -0.3010
-0.3010 REAL </s> -0.3010
-0.3010 RECORD </s> -0.3010
-0.3010 RED </s> -0.3010
-0.3010 REMEMBER </s> -0.3010
-0.3010 REST </s> -0.3010
-0.3010 RICK </s> -0.3010
-0.3010 RIGHT </s> -0.3010
-0.3010 RIVER </s> -0.3010
-0.3010 ROAD </s> -0.3010
-0.3010 ROCK </s> -0.3010
-0.3010 ROOM </s> -0.3010
-0.3010 ROUND </s> -0.3010
-0.3010 RULE </s> -0.3010
-0.3010 RUN </s> -0.3010
-0.3010 SAID </s> -0.3010
-0.3010 SAME </s> -0.3010
-0.3010 SAN FRANCISCO 0.0000
-0.3010 SAW </s> -0.3010
-0.3010 SAY </s> -0.3010
-0.3010 SCHOOL </s> -0.3010
-0.3010 SCIENCE </s> -0.3010
-0.3010 SEA </s> -0.3010
-0.3010 SEARCH </s> -0.3010
-0.3010 SECOND </s> -0.3010
-0.3010 SEE </s> -0.3010
-0.3010 SEEM </s> -0.3010
-0.3010 SELF </s> -0.3010
-0.3010 SEND </s> -0.3010
-0.3010 SENTENCE </s> -0.3010
-0.3010 SERVE </s> -0.3010
-0.3010 SET </s> -0.3010
-0.3010 SEVERAL </s> -0.3010
-0.3010 SHAPE </s> -0.3010
-0.3010 SHE </s> -0.3010
-0.3010 SHIP </s> -0.3010
-0.3010 SHORT </s> -0.3010
-0.3010 SHOULD </s> -0.3010
-0.3010 SHOW </s> -0.3010
-0.3010 SIDE </s> -0.3010
-0.3010 SIMPLE </s> -0.3010
-0.3010 SINCE </s> -0.3010
-0.3010 SING </s> -0.3010
-0.3010 SIT </s> -0.3010
-0.3010 SIX </s> -0.3010
-0.3010 SIZE </s> -0.3010
-0.3010 SLEEP </s> -0.3010
-0.3010 SLOW </s> -0.3010
-0.3010 SMALL </s> -0.3010
-0.3010 SMS </s> -0.3010
-0.3010 SNOW </s> -0.3010
-0.3010 SO </s> -0.3010
-0.3010 SOME </s> -0.3010
-0.3010 SONG </s> -0.3010
-0.3010 SOON </s> -0.3010
-0.3010 SOUND </s> -0.3010
-0.3010 SOUTH </s> -0.3010
-0.3010 SPECIAL </s> -0.3010
-0.3010 SPELL </s> -0.3010
-0.3010 STAND </s> -0.3010
-0.3010 STAR </s> -0.3010
-0.3010 START </s> -0.3010
-0.3010 STATE </s> -0.3010
-0.3010 STAY </s> -0.3010
-0.3010 STEP </s> -0.3010
-0.3010 STILL </s> -0.3010
-0.3010 STOOD </s> -0.3010
-0.3010 STOP </s> -0.3010
-0.3010 STORY </s> -0.3010
-0.3010 STREET </s> -0.3010
-0.3010 STRONG </s> -0.3010
-0.3010 STUDY </s> -0.3010
-0.3010 SUCH </s> -0.3010
-0.3010 SUN </s> -0.3010
-0.3010 SURE </s> -0.3010
-0.3010 SURFACE </s> -0.3010
-0.3010 TABLE </s> -0.3010
-0.3010 TAIL </s> -0.3010
-0.3010 TAKE </s> -0.3010
-0.3010 TALK </s> -0.3010
-0.3010 TEACH </s> -0.3010
-0.3010 TELL </s> -0.3010
-0.3010 TEN </s> -0.3010
-0.3010 TEST </s> -0.3010
-0.3010 THAN </s> -0.3010
-0.3010 THAT </s> -0.3010
-0.3010 THE </s> -0.3010
-0.3010 THEIR </s> -0.3010
-0.3010 THEM </s> -0.3010
-0.3010 THEN </s> -0.3010
-0.3010 THERE </s> -0.3010
-0.3010 THESE </s> -0.3010
-0.3010 THEY </s> -0.3010
-0.3010 THING </s> -0.3010
-0.3010 THINK </s> -0.3010
-0.3010 THIS </s> -0.3010
-0.3010 THOSE </s> -0.3010
-0.3010 THOUGH </s> -0.3010
-0.3010 THOUGHT </s> -0.3010
-0.3010 THOUSAND </s> -0.3010
-0.3010 THREE </s> -0.3010
-0.3010 THROUGH </s> -0.3010
-0.3010 TIME </s> -0.3010
-0.3010 TIMER </s> -0.3010
-0.3010 TO </s> -0.3010
-0.3010 TOGETHER </s> -0.3010
-0.3010 TOLD </s> -0.3010
-0.3010 TOO </s> -0.3010
-0.3010 TOOK </s> -0.3010
-0.3010 TOP </s> -0.3010
-0.3010 TOWARD </s> -0.3010
-0.3010 TOWN </s> -0.3010
-0.3010 TRAFFIC </s> -0.3010
-0.3010 TRAVEL </s> -0.3010
-0.3010 TREE </s> -0.3010
-0.3010 TRY </s> -0.3010
-0.3010 TURN </s> -0.3010
-0.3010 TWO </s> -0.3010
-0.3010 UNDER </s> -0.3010
-0.3010 UNIT </s> -0.3010
-0.3010 UNTIL </s> -0.3010
-0.3010 UP </s> -0.3010
-0.3010 US </s> -0.3010
-0.3010 USE </s> -0.3010
-0.3010 USUAL </s> -0.3010
-0.3010 VERY </s> -0.3010
-0.3010 VOICE </s> -0.3010
-0.3010 VOWEL </s> -0.3010
-0.3010 WAIT </s> -0.3010
-0.3010 WALK </s> -0.3010
-0.3010 WANT </s> -0.3010
-0.3010 WAR </s> -0.3010
-0.3010 WARM </s> -0.3010
-0.3010 WAS </s> -0.3010
-0.3010 WATCH </s> -0.3010
-0.3010 WATER </s> -0.3010
-0.3010 WAY </s> -0.3010
-0.3010 WE </s> -0.3010
-0.3010 WEATHER </s> -0.3010
-0.3010 WEEK </s> -0.3010
-0.3010 WEIGHT </s> -0.3010
-0.3010 WELL </s> -0.3010
-0.3010 WENT </s> -0.3010
-0.3010 WERE </s> -0.3010
-0.3010 WEST </s> -0.3010
-0.3010 WHAT </s> -0.3010
-0.3010 WHEEL </s> -0.3010
-0.3010 WHEN </s> -0.3010
-0.3010 WHERE </s> -0.3010
-0.3010 WHICH </s> -0.3010
-0.3010 WHILE </s> -0.3010
-0.3010 WHITE </s> -0.3010
-0.3010 WHO </s> -0.3010
-0.3010 WHOLE </s> -0.3010
-0.3010 WHY </s> -0.3010
-0.3010 WILL </s> -0.3010
-0.3010 WIND </s> -0.3010
-0.3010 WITH </s> -0.3010
-0.3010 WONDER </s> -0.3010
-0.3010 WOOD </s> -0.3010
-0.3010 WORD </s> -0.3010
-0.3010 WORK </s> -0.3010
-0.3010 WORLD </s> -0.3010
-0.3010 WOULD </s> -0.3010
-0.3010 WRITE </s> -0.3010
-0.3010 YEAR </s> -0.3010
-0.3010 YES </s> -0.3010
-0.3010 YET </s> -0.3010
-0.3010 YOU </s> -0.3010
-0.3010 YOUNG </s> -0.3010
-0.3010 YOUR </s> -0.3010

\3-grams:
-0.3010 <s> A </s>
-0.3010 <s> ABLE </s>
-0.3010 <s> ABOUT </s>
-0.3010 <s> ABOVE </s>
-0.3010 <s> ACT </s>
-0.3010 <s> ADD </s>
-0.3010 <s> AFTER </s>
-0.3010 <s> AGAIN </s>
-0.3010 <s> AGAINST </s>
-0.3010 <s> AGE </s>
-0.3010 <s> AGO </s>
-0.3010 <s> AIR </s>
-0.3010 <s> ALARM </s>
-0.3010 <s> ALL </s>
-0.3010 <s> ALSO </s>
-0.3010 <s> ALWAYS </s>
-0.3010 <s> AM </s>
-0.3010 <s> AMONG </s>
-0.3010 <s> AN </s>
-0.3010 <s> AND </s>
-0.3010 <s> ANIMAL </s>
-0.3010 <s> ANSWER </s>
-0.3010 <s> ANY </s>
-0.3010 <s> APPEAR </s>
-0.3010 <s> ARE </s>
-0.3010 <s> AREA </s>
-0.3010 <s> AS </s>
-0.3010 <s> ASK </s>
-0.3010 <s> AT </s>
-0.3010 <s> BACK </s>
-0.3010 <s> BASE </s>
-0.3010 <s> BE </s>
-0.3010 <s> BEAUTY </s>
-0.3010 <s> BED </s>
-0.3010 <s> BEEN </s>
-0.3010 <s> BEFORE </s>
-0.3010 <s> BEGAN </s>
-0.3010 <s> BEGIN </s>
-0.3010 <s> BEHIND </s>
-0.3010 <s> BEST </s>
-0.3010 <s> BETTER </s>
-0.3010 <s> BETWEEN </s>
-0.3010 <s> BIG </s>
-0.3010 <s> BIRD </s>
-0.3010 <s> BLACK </s>
-0.3010 <s> BLUE </s>
-0.3010 <s> BOAT </s>
-0.3010 <s> BODY </s>
-0.3010 <s> BOOK </s>
-0.3010 <s> BOTH </s>
-0.3010 <s> BOX </s>
-0.3010 <s> BOY </s>
-0.3010 <s> BRING </s>
-0.3010 <s> BROUGHT </s>
-0.3010 <s> BRUXELLES </s>
-0.3010 <s> BUILD </s>
-0.3010 <s> BUSY </s>
-0.3010 <s> BUT </s>
-0.3010 <s> BY </s>
-0.3010 <s> CALL </s>
-0.3010 <s> CAME </s>
-0.3010 <s> CAN </s>
-0.3010 <s> CAR </s>
-0.3010 <s> CARE </s>
-0.3010 <s> CARRY </s>
-0.3010 <s> CAUSE </s>
-0.3010 <s> CENTER </s>
-0.3010 <s> CERTAIN </s>
-0.3010 <s> CHANGE </s>
-0.3010 <s> CHECK </s>
-0.3010 <s> CHILDREN </s>
-0.3010 <s> CITY </s>
-0.3010 <s> CLASS </s>
-0.3010 <s> CLEAR </s>
-0.3010 <s> CLOSE </s>
-0.3010 <s> COLD </s>
-0.3010 <s> COLOR </s>
-0.3010 <s> COME </s>
-0.3010 <s> COMMON </s>
-0.3010 <s> COMPLETE </s>
-0.3010 <s> CONNECTED </s>
-0.3010 <s> CONTAIN </s>
-0.3010 <s> CORRECT </s>
-0.3010 <s> COULD </s>
-0.3010 <s> COUNTRY </s>
-0.3010 <s> COURSE </s>
-0.3010 <s> COVER </s>
-0.3010 <s> CROSS </s>
-0.3010 <s> CRY </s>
-0.3010 <s> CUT </s>
-0.3010 <s> DARK </s>
-0.3010 <s> DAY </s>
-0.3010 <s> DECIDE </s>
-0.3010 <s> DEEP </s>
-0.3010 <s> DEVELOP </s>
-0.3010 <s> DID </s>
-0.3010 <s> DIFFER </s>
-0.3010 <s> DIRECT </s>
-0.3010 <s> DO </s>
-0.3010 <s> DOES </s>
-0.3010 <s> DOG </s>
-0.3010 <s> DONE </s>
-0.3010 <s> DONT </s>
-0.3010 <s> DOOR </s>
-0.3010 <s> DOWN </s>
-0.3010 <s> DRAW </s>
-0.3010 <s> DRIVE </s>
-0.3010 <s> DRY </s>
-0.3010 <s> DURING </s>
-0.3010 <s> EACH </s>
-0.3010 <s> EARLY </s>
-0.3010 <s> EARTH </s>
-0.3010 <s> EASE </s>
-0.3010 <s> EAST </s>
-0.3010 <s> EAT </s>
-0.3010 <s> EMAIL </s>
-0.3010 <s> END </s>
-0.3010 <s> ENOUGH </s>
-0.3010 <s> EVEN </s>
-0.3010 <s> EVENTS </s>
-0.3010 <s> EVER </s>
-0.3010 <s> EVERY </s>
-0.3010 <s> EXAMPLE </s>
-0.3010 <s> EYE </s>
-0.3010 <s> FACE </s>
-0.3010 <s> FACT </s>
-0.3010 <s> FALL </s>
-0.3010 <s> FAMILY </s>
-0.3010 <s> FAR </s>
-0.3010 <s> FARM </s>
-0.3010 <s> FAST </s>
-0.3010 <s> FATHER </s>
-0.3010 <s> FEEL </s>
-0.3010 <s> FEET </s>
-0.3010 <s> FEW </s>
-0.3010 <s> FIELD </s>
-0.3010 <s> FIGURE </s>
-0.3010 <s> FILL </s>
-0.3010 <s> FINAL </s>
-0.3010 <s> FIND </s>
-0.3010 <s> FINE </s>
-0.3010 <s> FIRE </s>
-0.3010 <s> FIRST </s>
-0.3010 <s> FISH </s>
-0.3010 <s> FIVE </s>
-0.3010 <s> FLY </s>
-0.3010 <s> FOLLOW </s>
-0.3010 <s> FOOD </s>
-0.3010 <s> FOOT </s>
-0.3010 <s> FOR </s>
-0.3010 <s> FORCE </s>
-0.3010 <s> FORM </s>
-0.3010 <s> FOUND </s>
-0.3010 <s> FOUR </s>
-0.3010 <s> FREE </s>
-0.3010 <s> FREMONT </s>
-0.3010 <s> FRIEND </s>
-0.3010 <s> FROM </s>
-0.3010 <s> FRONT </s>
-0.3010 <s> FULL </s>
-0.3010 <s> GAME </s>
-0.3010 <s> GAVE </s>
-0.3010 <s> GET </s>
-0.3010 <s> GIRL </s>
-0.3010 <s> GIVE </s>
-0.3010 <s> GO </s>
-0.3010 <s> GOLD </s>
-0.3010 <s> GOOD </s>
-0.3010 <s> GOT </s>
-0.3010 <s> GOVERN </s>
-0.3010 <s> GREAT </s>
-0.3010 <s> GREEN </s>
-0.3010 <s> GROUND </s>
-0.3010 <s> GROUP </s>
-0.3010 <s> GROW </s>
-0.3010 <s> HAD </s>
-0.3010 <s> HALF </s>
-0.3010 <s> HAND </s>
-0.3010 <s> HAPPEN </s>
-0.3010 <s> HARD </s>
-0.3010 <s> HAS </s>
-0.3010 <s> HAVE </s>
-0.3010 <s> HE </s>
-0.3010 <s> HEAD </s>
-0.3010 <s> HEAR </s>
-0.3010 <s> HEARD </s>
-0.3010 <s> HEAT </s>
-0.3010 <s> HELLO </s>
-0.3010 <s> HELP </s>
-0.3010 <s> HER </s>
-0.3010 <s> HERE </s>
-0.3010 <s> HIGH </s>
-0.3010 <s> HIM </s>
-0.3010 <s> HIS </s>
-0.3010 <s> HISTORY </s>
-0.3010 <s> HOLD </s>
-0.3010 <s> HOME </s>
-0.3010 <s> HORSE </s>
-0.3010 <s> HOT </s>
-0.3010 <s> HOUR </s>
-0.3010 <s> HOUSE </s>
-0.3010 <s> HOW </s>
-0.3010 <s> HUNDRED </s>
-0.3010 <s> IDEA </s>
-0.3010 <s> IF </s>
-0.3010 <s> IN </s>
-0.3010 <s> INCH </s>
-0.3010 <s> INTEREST </s>
-0.3010 <s> IS </s>
-0.3010 <s> ISLAND </s>
-0.3010 <s> IT </s>
-0.3010 <s> JUST </s>
-0.3010 <s> KEEP </s>
-0.3010 <s> KIND </s>
-0.3010 <s> KING </s>
-0.3010 <s> KNEW </s>
-0.3010 <s> KNOW </s>
-0.3010 <s> LAND </s>
-0.3010 <s> LANGUAGE </s>
-0.3010 <s> LARGE </s>
-0.3010 <s> LAST </s>
-0.3010 <s> LATE </s>
-0.3010 <s> LAUGH </s>
-0.3010 <s> LAY </s>
-0.3010 <s> LEAD </s>
-0.3010 <s> LEARN </s>
-0.3010 <s> LEAVE </s>
-0.3010 <s> LEFT </s>
-0.3010 <s> LESS </s>
-0.3010 <s> LET </s>
-0.3010 <s> LETTER </s>
-0.3010 <s> LIFE </s>
-0.3010 <s> LIGHT </s>
-0.3010 <s> LIGHTS </s>
-0.3010 <s> LIKE </s>
-0.3010 <s> LINE </s>
-0.3010 <s> LIST </s>
-0.3010 <s> LISTEN </s>
-0.3010 <s> LITTLE </s>
-0.3010 <s> LIVE </s>
-0.3010 <s> LONG </s>
-0.3010 <s> LOOK </s>
-0.3010 <s> LOT </s>
-0.3010 <s> LOVE </s>
-0.3010 <s> LOW </s>
-0.3010 <s> MACHINE </s>
-0.3010 <s> MADE </s>
-0.3010 <s> MAIN </s>
-0.3010 <s> MAKE </s>
-0.3010 <s> MAN </s>
-0.3010 <s> MANY </s>
-0.3010 <s> MAP </s>
-0.3010 <s> MARK </s>
-0.3010 <s> MAY </s>
-0.3010 <s> ME </s>
-0.3010 <s> MEAN </s>
-0.3010 <s> MEASURE </s>
-0.3010 <s> MEN </s>
-0.3010 <s> MIGHT </s>
-0.3010 <s> MILE </s>
-0.3010 <s> MIND </s>
-0.3010 <s> MINUTE </s>
-0.3010 <s> MISS </s>
-0.3010 <s> MONACO </s>
-0.3010 <s> MONEY </s>
-0.3010 <s> MOON </s>
-0.3010 <s> MORE </s>
-0.3010 <s> MORNING </s>
-0.3010 <s> MOST </s>
-0.3010 <s> MOTHER </s>
-0.3010 <s> MOUNTAIN </s>
-0.3010 <s> MOVE </s>
-0.3010 <s> MUCH </s>
-0.3010 <s> MUSIC </s>
-0.3010 <s> MUST </s>
-0.3010 <s> MY </s>
-0.3010 <s> NAME </s>
-0.3010 <s> NEAR </s>
-0.3010 <s> NEED </s>
-0.3010 <s> NEVER </s>
-0.3010 <s> NEW </s>
-0.3010 <s> NEXT </s>
-0.3010 <s> NIGHT </s>
-0.3010 <s> NO </s>
-0.3010 <s> NORTH </s>
-0.3010 <s> NOTE </s>
-0.3010 <s> NOTHING </s>
-0.3010 <s> NOTICE </s>
-0.3010 <s> NOUN </s>
-0.3010 <s> NOW </s>
-0.3010 <s> NUMBER </s>
-0.3010 <s> NUMERAL </s>
-0.3010 <s> OBJECT </s>
-0.3010 <s> OF </s>
-0.3010 <s> OFF </s>
-0.3010 <s> OFTEN </s>
-0.3010 <s> OH </s>
-0.3010 <s> OLD </s>
-0.3010 <s> ON </s>
-0.3010 <s> ONCE </s>
-0.3010 <s> ONE </s>
-0.3010 <s> ONLY </s>
-0.3010 <s> OPEN </s>
-0.3010 <s> OR </s>
-0.3010 <s> ORDER </s>
-0.3010 <s> OTHER </s>
-0.3010 <s> OUR </s>
-0.3010 <s> OUT </s>
-0.3010 <s> OVER </s>
-0.3010 <s> OWN </s>
-0.3010 <s> PAGE </s>
-0.3010 <s> PAPER </s>
-0.3010 <s> PARIS </s>
-0.3010 <s> PART </s>
-0.3010 <s> PASS </s>
-0.3010 <s> PATTERN </s>
-0.3010 <s> PEOPLE </s>
-0.3010 <s> PERHAPS </s>
-0.3010 <s> PERSON </s>
-0.3010 <s> PICTURE </s>
-0.3010 <s> PIECE </s>
-0.3010 <s> PLACE </s>
-0.3010 <s> PLAIN </s>
-0.3010 <s> PLAN </s>
-0.3010 <s> PLANE </s>
-0.3010 <s> PLANT </s>
-0.4771 <s> PLAY </s>
-0.7782 <s> PLAY MUSIC
-0.3010 <s> POINT </s>
-0.3010 <s> PORT </s>
-0.3010 <s> POSE </s>
-0.3010 <s> POSSIBLE </s>
-0.3010 <s> POUND </s>
-0.3010 <s> POWER </s>
-0.3010 <s> PRESS </s>
-0.3010 <s> PROBLEM </s>
-0.3010 <s> PRODUCE </s>
-0.3010 <s> PRODUCT </s>
-0.3010 <s> PULL </s>
-0.3010 <s> PUT </s>
-0.3010 <s> QUESTION </s>
-0.3010 <s> QUICK </s>
-0.3010 <s> RAIN </s>
-0.3010 <s> RAN </s>
-0.3010 <s> REACH </s>
-0.3010 <s> READ </s>
-0.3010 <s> READY </s>
-0.3010 <s> REAL </s>
-0.3010 <s> RECORD </s>
-0.3010 <s> RED </s>
-0.3010 <s> REMEMBER </s>
-0.3010 <s> REST </s>
-0.3010 <s> RICK </s>
-0.3010 <s> RIGHT </s>
-0.3010 <s> RIVER </s>
-0.3010 <s> ROAD </s>
-0.3010 <s> ROCK </s>
-0.3010 <s> ROOM </s>
-0.3010 <s> ROUND </s>
-0.3010 <s> RULE </s>
-0.3010 <s> RUN </s>
-0.3010 <s> SAID </s>
-0.3010 <s> SAME </s>
-0.3010 <s> SAN FRANCISCO
-0.3010 <s> SAW </s>
-0.3010 <s> SAY </s>
-0.3010 <s> SCHOOL </s>
-0.3010 <s> SCIENCE </s>
-0.3010 <s> SEA </s>
-0.3010 <s> SEARCH </s>
-0.3010 <s> SECOND </s>
-0.3010 <s> SEE </s>
-0.3010 <s> SEEM </s>
-0.3010 <s> SELF </s>
-0.3010 <s> SEND </s>
-0.3010 <s> SENTENCE </s>
-0.3010 <s> SERVE </s>
-0.3010 <s> SET </s>
-0.3010 <s> SEVERAL </s>
-0.3010 <s> SHAPE </s>
-0.3010 <s> SHE </s>
-0.3010 <s> SHIP </s>
-0.3010 <s> SHORT </s>
-0.3010 <s> SHOULD </s>
-0.3010 <s> SHOW </s>
-0.3010 <s> SIDE </s>
-0.3010 <s> SIMPLE </s>
-0.3010 <s> SINCE </s>
-0.3010 <s> SING </s>
-0.3010 <s> SIT </s>
-0.3010 <s> SIX </s>
-0.3010 <s> SIZE </s>
-0.3010 <s> SLEEP </s>
-0.3010 <s> SLOW </s>
-0.3010 <s> SMALL </s>
-0.3010 <s> SMS </s>
-0.3010 <s> SNOW </s>
-0.3010 <s> SO </s>
-0.3010 <s> SOME </s>
-0.3010 <s> SONG </s>
-0.3010 <s> SOON </s>
-0.3010 <s> SOUND </s>
-0.3010 <s> SOUTH </s>
-0.3010 <s> SPECIAL </s>
-0.3010 <s> SPELL </s>
-0.3010 <s> STAND </s>
-0.3010 <s> STAR </s>
-0.3010 <s> START </s>
-0.3010 <s> STATE </s>
-0.3010 <s> STAY </s>
-0.3010 <s> STEP </s>
-0.3010 <s> STILL </s>
-0.3010 <s> STOOD </s>
-0.3010 <s> STOP </s>
-0.3010 <s> STORY </s>
-0.3010 <s> STREET </s>
-0.3010 <s> STRONG </s>
-0.3010 <s> STUDY </s>
-0.3010 <s> SUCH </s>
-0.3010 <s> SUN </s>
-0.3010 <s> SURE </s>
-0.3010 <s> SURFACE </s>
-0.3010 <s> TABLE </s>
-0.3010 <s> TAIL </s>
-0.3010 <s> TAKE </s>
-0.3010 <s> TALK </s>
-0.3010 <s> TEACH </s>
-0.3010 <s> TELL </s>
-0.3010 <s> TEN </s>
-0.3010 <s> TEST </s>
-0.3010 <s> THAN </s>
-0.3010 <s> THAT </s>
-0.3010 <s> THE </s>
-0.3010 <s> THEIR </s>
-0.3010 <s> THEM </s>
-0.3010 <s> THEN </s>
-0.3010 <s> THERE </s>
-0.3010 <s> THESE </s>
-0.3010 <s> THEY </s>
-0.3010 <s> THING </s>
-0.3010 <s> THINK </s>
-0.3010 <s> THIS </s>
-0.3010 <s> THOSE </s>
-0.3010 <s> THOUGH </s>
-0.3010 <s> THOUGHT </s>
-0.3010 <s> THOUSAND </s>
-0.3010 <s> THREE </s>
-0.3010 <s> THROUGH </s>
-0.3010 <s> TIME </s>
-0.3010 <s> TIMER </s>
-0.3010 <s> TO </s>
-0.3010 <s> TOGETHER </s>
-0.3010 <s> TOLD </s>
-0.3010 <s> TOO </s>
-0.3010 <s> TOOK </s>
-0.3010 <s> TOP </s>
-0.3010 <s> TOWARD </s>
-0.3010 <s> TOWN </s>
-0.3010 <s> TRAFFIC </s>
-0.3010 <s> TRAVEL </s>
-0.3010 <s> TREE </s>
-0.3010 <s> TRY </s>
-0.3010 <s> TURN </s>
-0.3010 <s> TWO </s>
-0.3010 <s> UNDER </s>
-0.3010 <s> UNIT </s>
-0.3010 <s> UNTIL </s>
-0.3010 <s> UP </s>
-0.3010 <s> US </s>
-0.3010 <s> USE </s>
-0.3010 <s> USUAL </s>
-0.3010 <s> VERY </s>
-0.3010 <s> VOICE </s>
-0.3010 <s> VOWEL </s>
-0.3010 <s> WAIT </s>
-0.3010 <s> WALK </s>
-0.3010 <s> WANT </s>
-0.3010 <s> WAR </s>
-0.3010 <s> WARM </s>
-0.3010 <s> WAS </s>
-0.3010 <s> WATCH </s>
-0.3010 <s> WATER </s>
-0.3010 <s> WAY </s>
-0.3010 <s> WE </s>
-0.3010 <s> WEATHER </s>
-0.3010 <s> WEEK </s>
-0.3010 <s> WEIGHT </s>
-0.3010 <s> WELL </s>
-0.3010 <s> WENT </s>
-0.3010 <s> WERE </s>
-0.3010 <s> WEST </s>
-0.3010 <s> WHAT </s>
-0.3010 <s> WHEEL </s>
-0.3010 <s> WHEN </s>
-0.3010 <s> WHERE </s>
-0.3010 <s> WHICH </s>
-0.3010 <s> WHILE </s>
-0.3010 <s> WHITE </s>
-0.3010 <s> WHO </s>
-0.3010 <s> WHOLE </s>
-0.3010 <s> WHY </s>
-0.3010 <s> WILL </s>
-0.3010 <s> WIND </s>
-0.3010 <s> WITH </s>
-0.3010 <s> WONDER </s>
-0.3010 <s> WOOD </s>
-0.3010 <s> WORD </s>
-0.3010 <s> WORK </s>
-0.3010 <s> WORLD </s>
-0.3010 <s> WOULD </s>
-0.3010 <s> WRITE </s>
-0.3010 <s> YEAR </s>
-0.3010 <s> YES </s>
-0.3010 <s> YET </s>
-0.3010 <s> YOU </s>
-0.3010 <s> YOUNG </s>
-0.3010 <s> YOUR </s>
-0.3010 PLAY MUSIC </s>
-0.3010 SAN FRANCISCO </s>

\end\
