Language model created by QuickLM on Thu Jun  6 00:50:34 EDT 2019
Copyright (c) 1996-2010 Carnegie Mellon University and Alexander I. Rudnicky

The model is in standard ARPA format, designed by Doug Paul while he was at MITRE.

The code that was used to produce this language model is available in Open Source.
Please visit http://www.speech.cs.cmu.edu/tools/ for more information

The (fixed) discount mass is 0.5. The backoffs are computed using the ratio method.
This model based on a corpus of 30 sentences and 34 words

\data\
ngram 1=34
ngram 2=62
ngram 3=32

\1-grams:
-0.7877 </s> -0.3010
-0.7877 <s> -0.2237
-2.2648 ALARM -0.2237
-2.2648 BRUXELLES -0.2237
-2.2648 CHECK -0.2237
-2.2648 CONNECTED -0.2237
-2.2648 EMAIL -0.2237
-2.2648 EVENTS -0.2237
-2.2648 FRANCE -0.2237
-2.2648 FRANCISCO -0.2237
-2.2648 FREMONT -0.2237
-2.2648 HELLO -0.2237
-2.2648 HISTORY -0.2237
-2.2648 IS -0.2237
-2.2648 LIGHTS -0.2237
-2.2648 MONACO -0.2237
-2.2648 MUSIC -0.2237
-2.2648 OFF -0.2237
-2.2648 ON -0.2237
-2.2648 PARIS -0.2237
-2.2648 PLAY -0.2987
-2.2648 RICK -0.2237
-2.2648 SAN -0.2987
-2.2648 SEARCH -0.2237
-2.2648 SEND -0.2237
-2.2648 SET -0.2237
-2.2648 SMS -0.2237
-2.2648 TIMER -0.2237
-2.2648 TRAFFIC -0.2237
-2.2648 TURN -0.2237
-2.2648 WEATHER -0.2237
-2.2648 WHERE -0.2237
-2.2648 WHO -0.2237
-2.2648 WORLD -0.2237

\2-grams:
-1.7782 <s> ALARM 0.0000
-1.7782 <s> BRUXELLES 0.0000
-1.7782 <s> CHECK 0.0000
-1.7782 <s> CONNECTED 0.0000
-1.7782 <s> EMAIL 0.0000
-1.7782 <s> EVENTS 0.0000
-1.7782 <s> FRANCE 0.0000
-1.7782 <s> FREMONT 0.0000
-1.7782 <s> HELLO 0.0000
-1.7782 <s> HISTORY 0.0000
-1.7782 <s> IS 0.0000
-1.7782 <s> LIGHTS 0.0000
-1.7782 <s> MONACO 0.0000
-1.7782 <s> OFF 0.0000
-1.7782 <s> ON 0.0000
-1.7782 <s> PARIS 0.0000
-1.7782 <s> PLAY 0.0000
-1.7782 <s> RICK 0.0000
-1.7782 <s> SAN 0.0000
-1.7782 <s> SEARCH 0.0000
-1.7782 <s> SEND 0.0000
-1.7782 <s> SET 0.0000
-1.7782 <s> SMS 0.0000
-1.7782 <s> TIMER 0.0000
-1.7782 <s> TRAFFIC 0.0000
-1.7782 <s> TURN 0.0000
-1.7782 <s> WEATHER 0.0000
-1.7782 <s> WHERE 0.0000
-1.7782 <s> WHO 0.0000
-1.7782 <s> WORLD 0.0000
-0.3010 ALARM </s> -0.3010
-0.3010 BRUXELLES </s> -0.3010
-0.3010 CHECK </s> -0.3010
-0.3010 CONNECTED </s> -0.3010
-0.3010 EMAIL </s> -0.3010
-0.3010 EVENTS </s> -0.3010
-0.3010 FRANCE </s> -0.3010
-0.3010 FRANCISCO </s> -0.3010
-0.3010 FREMONT </s> -0.3010
-0.3010 HELLO </s> -0.3010
-0.3010 HISTORY </s> -0.3010
-0.3010 IS </s> -0.3010
-0.3010 LIGHTS </s> -0.3010
-0.3010 MONACO </s> -0.3010
-0.3010 MUSIC </s> -0.3010
-0.3010 OFF </s> -0.3010
-0.3010 ON </s> -0.3010
-0.3010 PARIS </s> -0.3010
-0.3010 PLAY MUSIC 0.0000
-0.3010 RICK </s> -0.3010
-0.3010 SAN FRANCISCO 0.0000
-0.3010 SEARCH </s> -0.3010
-0.3010 SEND </s> -0.3010
-0.3010 SET </s> -0.3010
-0.3010 SMS </s> -0.3010
-0.3010 TIMER </s> -0.3010
-0.3010 TRAFFIC </s> -0.3010
-0.3010 TURN </s> -0.3010
-0.3010 WEATHER </s> -0.3010
-0.3010 WHERE </s> -0.3010
-0.3010 WHO </s> -0.3010
-0.3010 WORLD </s> -0.3010

\3-grams:
-0.3010 <s> ALARM </s>
-0.3010 <s> BRUXELLES </s>
-0.3010 <s> CHECK </s>
-0.3010 <s> CONNECTED </s>
-0.3010 <s> EMAIL </s>
-0.3010 <s> EVENTS </s>
-0.3010 <s> FRANCE </s>
-0.3010 <s> FREMONT </s>
-0.3010 <s> HELLO </s>
-0.3010 <s> HISTORY </s>
-0.3010 <s> IS </s>
-0.3010 <s> LIGHTS </s>
-0.3010 <s> MONACO </s>
-0.3010 <s> OFF </s>
-0.3010 <s> ON </s>
-0.3010 <s> PARIS </s>
-0.3010 <s> PLAY MUSIC
-0.3010 <s> RICK </s>
-0.3010 <s> SAN FRANCISCO
-0.3010 <s> SEARCH </s>
-0.3010 <s> SEND </s>
-0.3010 <s> SET </s>
-0.3010 <s> SMS </s>
-0.3010 <s> TIMER </s>
-0.3010 <s> TRAFFIC </s>
-0.3010 <s> TURN </s>
-0.3010 <s> WEATHER </s>
-0.3010 <s> WHERE </s>
-0.3010 <s> WHO </s>
-0.3010 <s> WORLD </s>
-0.3010 PLAY MUSIC </s>
-0.3010 SAN FRANCISCO </s>

\end\
