Language model created by QuickLM on Thu Jun  6 15:49:08 EDT 2019
Copyright (c) 1996-2010 Carnegie Mellon University and Alexander I. Rudnicky

The model is in standard ARPA format, designed by Doug Paul while he was at MITRE.

The code that was used to produce this language model is available in Open Source.
Please visit http://www.speech.cs.cmu.edu/tools/ for more information

The (fixed) discount mass is 0.5. The backoffs are computed using the ratio method.
This model based on a corpus of 39 sentences and 43 words

\data\
ngram 1=43
ngram 2=80
ngram 3=41

\1-grams:
-0.7855 </s> -0.3010
-0.7855 <s> -0.2233
-2.3766 ALARM -0.2233
-2.3766 BRUXELLES -0.2233
-2.3766 CHECK -0.2233
-2.3766 CHROME -0.2233
-2.3766 CODE -0.2233
-2.3766 CONNECTED -0.2233
-2.3766 DOWN -0.2233
-2.3766 EMAIL -0.2233
-2.3766 EVENTS -0.2233
-2.3766 FRANCE -0.2233
-2.3766 FRANCISCO -0.2233
-2.3766 FREMONT -0.2233
-2.3766 FULL -0.2233
-2.3766 GOOGLE -0.2233
-2.3766 HELLO -0.2233
-2.3766 HISTORY -0.2233
-2.3766 IS -0.2233
-2.3766 LIGHTS -0.2233
-2.3766 MONACO -0.2233
-2.3766 MUSIC -0.2233
-2.3766 OFF -0.2233
-2.3766 ON -0.2233
-2.3766 OPEN -0.2233
-2.3766 PARIS -0.2233
-2.3766 PLAY -0.2992
-2.3766 RICK -0.2233
-2.3766 SAN -0.2992
-2.3766 SEARCH -0.2233
-2.3766 SEND -0.2233
-2.3766 SET -0.2233
-2.3766 SLACK -0.2233
-2.3766 SMS -0.2233
-2.3766 STUDIO -0.2233
-2.3766 TIMER -0.2233
-2.3766 TRAFFIC -0.2233
-2.3766 TURN -0.2233
-2.3766 VISUAL -0.2233
-2.3766 WEATHER -0.2233
-2.3766 WHERE -0.2233
-2.3766 WHO -0.2233
-2.3766 WORLD -0.2233

\2-grams:
-1.8921 <s> ALARM 0.0000
-1.8921 <s> BRUXELLES 0.0000
-1.8921 <s> CHECK 0.0000
-1.8921 <s> CHROME 0.0000
-1.8921 <s> CODE 0.0000
-1.8921 <s> CONNECTED 0.0000
-1.8921 <s> DOWN 0.0000
-1.8921 <s> EMAIL 0.0000
-1.8921 <s> EVENTS 0.0000
-1.8921 <s> FRANCE 0.0000
-1.8921 <s> FREMONT 0.0000
-1.8921 <s> FULL 0.0000
-1.8921 <s> GOOGLE 0.0000
-1.8921 <s> HELLO 0.0000
-1.8921 <s> HISTORY 0.0000
-1.8921 <s> IS 0.0000
-1.8921 <s> LIGHTS 0.0000
-1.8921 <s> MONACO 0.0000
-1.8921 <s> OFF 0.0000
-1.8921 <s> ON 0.0000
-1.8921 <s> OPEN 0.0000
-1.8921 <s> PARIS 0.0000
-1.8921 <s> PLAY 0.0000
-1.8921 <s> RICK 0.0000
-1.8921 <s> SAN 0.0000
-1.8921 <s> SEARCH 0.0000
-1.8921 <s> SEND 0.0000
-1.8921 <s> SET 0.0000
-1.8921 <s> SLACK 0.0000
-1.8921 <s> SMS 0.0000
-1.8921 <s> STUDIO 0.0000
-1.8921 <s> TIMER 0.0000
-1.8921 <s> TRAFFIC 0.0000
-1.8921 <s> TURN 0.0000
-1.8921 <s> VISUAL 0.0000
-1.8921 <s> WEATHER 0.0000
-1.8921 <s> WHERE 0.0000
-1.8921 <s> WHO 0.0000
-1.8921 <s> WORLD 0.0000
-0.3010 ALARM </s> -0.3010
-0.3010 BRUXELLES </s> -0.3010
-0.3010 CHECK </s> -0.3010
-0.3010 CHROME </s> -0.3010
-0.3010 CODE </s> -0.3010
-0.3010 CONNECTED </s> -0.3010
-0.3010 DOWN </s> -0.3010
-0.3010 EMAIL </s> -0.3010
-0.3010 EVENTS </s> -0.3010
-0.3010 FRANCE </s> -0.3010
-0.3010 FRANCISCO </s> -0.3010
-0.3010 FREMONT </s> -0.3010
-0.3010 FULL </s> -0.3010
-0.3010 GOOGLE </s> -0.3010
-0.3010 HELLO </s> -0.3010
-0.3010 HISTORY </s> -0.3010
-0.3010 IS </s> -0.3010
-0.3010 LIGHTS </s> -0.3010
-0.3010 MONACO </s> -0.3010
-0.3010 MUSIC </s> -0.3010
-0.3010 OFF </s> -0.3010
-0.3010 ON </s> -0.3010
-0.3010 OPEN </s> -0.3010
-0.3010 PARIS </s> -0.3010
-0.3010 PLAY MUSIC 0.0000
-0.3010 RICK </s> -0.3010
-0.3010 SAN FRANCISCO 0.0000
-0.3010 SEARCH </s> -0.3010
-0.3010 SEND </s> -0.3010
-0.3010 SET </s> -0.3010
-0.3010 SLACK </s> -0.3010
-0.3010 SMS </s> -0.3010
-0.3010 STUDIO </s> -0.3010
-0.3010 TIMER </s> -0.3010
-0.3010 TRAFFIC </s> -0.3010
-0.3010 TURN </s> -0.3010
-0.3010 VISUAL </s> -0.3010
-0.3010 WEATHER </s> -0.3010
-0.3010 WHERE </s> -0.3010
-0.3010 WHO </s> -0.3010
-0.3010 WORLD </s> -0.3010

\3-grams:
-0.3010 <s> ALARM </s>
-0.3010 <s> BRUXELLES </s>
-0.3010 <s> CHECK </s>
-0.3010 <s> CHROME </s>
-0.3010 <s> CODE </s>
-0.3010 <s> CONNECTED </s>
-0.3010 <s> DOWN </s>
-0.3010 <s> EMAIL </s>
-0.3010 <s> EVENTS </s>
-0.3010 <s> FRANCE </s>
-0.3010 <s> FREMONT </s>
-0.3010 <s> FULL </s>
-0.3010 <s> GOOGLE </s>
-0.3010 <s> HELLO </s>
-0.3010 <s> HISTORY </s>
-0.3010 <s> IS </s>
-0.3010 <s> LIGHTS </s>
-0.3010 <s> MONACO </s>
-0.3010 <s> OFF </s>
-0.3010 <s> ON </s>
-0.3010 <s> OPEN </s>
-0.3010 <s> PARIS </s>
-0.3010 <s> PLAY MUSIC
-0.3010 <s> RICK </s>
-0.3010 <s> SAN FRANCISCO
-0.3010 <s> SEARCH </s>
-0.3010 <s> SEND </s>
-0.3010 <s> SET </s>
-0.3010 <s> SLACK </s>
-0.3010 <s> SMS </s>
-0.3010 <s> STUDIO </s>
-0.3010 <s> TIMER </s>
-0.3010 <s> TRAFFIC </s>
-0.3010 <s> TURN </s>
-0.3010 <s> VISUAL </s>
-0.3010 <s> WEATHER </s>
-0.3010 <s> WHERE </s>
-0.3010 <s> WHO </s>
-0.3010 <s> WORLD </s>
-0.3010 PLAY MUSIC </s>
-0.3010 SAN FRANCISCO </s>

\end\
