Language model created by QuickLM on Fri Jun  7 18:04:42 EDT 2019
Copyright (c) 1996-2010 Carnegie Mellon University and Alexander I. Rudnicky

The model is in standard ARPA format, designed by Doug Paul while he was at MITRE.

The code that was used to produce this language model is available in Open Source.
Please visit http://www.speech.cs.cmu.edu/tools/ for more information

The (fixed) discount mass is 0.5. The backoffs are computed using the ratio method.
This model based on a corpus of 31 sentences and 35 words

\data\
ngram 1=35
ngram 2=64
ngram 3=33

\1-grams:
-0.7874 </s> -0.3010
-0.7874 <s> -0.2237
-2.2788 ALARM -0.2237
-2.2788 BRUXELLES -0.2237
-2.2788 CHECK -0.2237
-2.2788 CONNECTED -0.2237
-2.2788 EMAIL -0.2237
-2.2788 EVENTS -0.2237
-2.2788 FRANCE -0.2237
-2.2788 FRANCISCO -0.2237
-2.2788 FREMONT -0.2237
-2.2788 HELLO -0.2237
-2.2788 HISTORY -0.2237
-2.2788 IS -0.2237
-2.2788 LIGHTS -0.2237
-2.2788 MONACO -0.2237
-2.2788 MUSIC -0.2237
-2.2788 OFF -0.2237
-2.2788 ON -0.2237
-2.2788 PARIS -0.2237
-2.2788 PICKLE -0.2237
-2.2788 PLAY -0.2987
-2.2788 RICK -0.2237
-2.2788 SAN -0.2987
-2.2788 SEARCH -0.2237
-2.2788 SEND -0.2237
-2.2788 SET -0.2237
-2.2788 SMS -0.2237
-2.2788 TIMER -0.2237
-2.2788 TRAFFIC -0.2237
-2.2788 TURN -0.2237
-2.2788 WEATHER -0.2237
-2.2788 WHERE -0.2237
-2.2788 WHO -0.2237
-2.2788 WORLD -0.2237

\2-grams:
-1.7924 <s> ALARM 0.0000
-1.7924 <s> BRUXELLES 0.0000
-1.7924 <s> CHECK 0.0000
-1.7924 <s> CONNECTED 0.0000
-1.7924 <s> EMAIL 0.0000
-1.7924 <s> EVENTS 0.0000
-1.7924 <s> FRANCE 0.0000
-1.7924 <s> FREMONT 0.0000
-1.7924 <s> HELLO 0.0000
-1.7924 <s> HISTORY 0.0000
-1.7924 <s> IS 0.0000
-1.7924 <s> LIGHTS 0.0000
-1.7924 <s> MONACO 0.0000
-1.7924 <s> OFF 0.0000
-1.7924 <s> ON 0.0000
-1.7924 <s> PARIS 0.0000
-1.7924 <s> PICKLE 0.0000
-1.7924 <s> PLAY 0.0000
-1.7924 <s> RICK 0.0000
-1.7924 <s> SAN 0.0000
-1.7924 <s> SEARCH 0.0000
-1.7924 <s> SEND 0.0000
-1.7924 <s> SET 0.0000
-1.7924 <s> SMS 0.0000
-1.7924 <s> TIMER 0.0000
-1.7924 <s> TRAFFIC 0.0000
-1.7924 <s> TURN 0.0000
-1.7924 <s> WEATHER 0.0000
-1.7924 <s> WHERE 0.0000
-1.7924 <s> WHO 0.0000
-1.7924 <s> WORLD 0.0000
-0.3010 ALARM </s> -0.3010
-0.3010 BRUXELLES </s> -0.3010
-0.3010 CHECK </s> -0.3010
-0.3010 CONNECTED </s> -0.3010
-0.3010 EMAIL </s> -0.3010
-0.3010 EVENTS </s> -0.3010
-0.3010 FRANCE </s> -0.3010
-0.3010 FRANCISCO </s> -0.3010
-0.3010 FREMONT </s> -0.3010
-0.3010 HELLO </s> -0.3010
-0.3010 HISTORY </s> -0.3010
-0.3010 IS </s> -0.3010
-0.3010 LIGHTS </s> -0.3010
-0.3010 MONACO </s> -0.3010
-0.3010 MUSIC </s> -0.3010
-0.3010 OFF </s> -0.3010
-0.3010 ON </s> -0.3010
-0.3010 PARIS </s> -0.3010
-0.3010 PICKLE </s> -0.3010
-0.3010 PLAY MUSIC 0.0000
-0.3010 RICK </s> -0.3010
-0.3010 SAN FRANCISCO 0.0000
-0.3010 SEARCH </s> -0.3010
-0.3010 SEND </s> -0.3010
-0.3010 SET </s> -0.3010
-0.3010 SMS </s> -0.3010
-0.3010 TIMER </s> -0.3010
-0.3010 TRAFFIC </s> -0.3010
-0.3010 TURN </s> -0.3010
-0.3010 WEATHER </s> -0.3010
-0.3010 WHERE </s> -0.3010
-0.3010 WHO </s> -0.3010
-0.3010 WORLD </s> -0.3010

\3-grams:
-0.3010 <s> ALARM </s>
-0.3010 <s> BRUXELLES </s>
-0.3010 <s> CHECK </s>
-0.3010 <s> CONNECTED </s>
-0.3010 <s> EMAIL </s>
-0.3010 <s> EVENTS </s>
-0.3010 <s> FRANCE </s>
-0.3010 <s> FREMONT </s>
-0.3010 <s> HELLO </s>
-0.3010 <s> HISTORY </s>
-0.3010 <s> IS </s>
-0.3010 <s> LIGHTS </s>
-0.3010 <s> MONACO </s>
-0.3010 <s> OFF </s>
-0.3010 <s> ON </s>
-0.3010 <s> PARIS </s>
-0.3010 <s> PICKLE </s>
-0.3010 <s> PLAY MUSIC
-0.3010 <s> RICK </s>
-0.3010 <s> SAN FRANCISCO
-0.3010 <s> SEARCH </s>
-0.3010 <s> SEND </s>
-0.3010 <s> SET </s>
-0.3010 <s> SMS </s>
-0.3010 <s> TIMER </s>
-0.3010 <s> TRAFFIC </s>
-0.3010 <s> TURN </s>
-0.3010 <s> WEATHER </s>
-0.3010 <s> WHERE </s>
-0.3010 <s> WHO </s>
-0.3010 <s> WORLD </s>
-0.3010 PLAY MUSIC </s>
-0.3010 SAN FRANCISCO </s>

\end\
